svm_type c_svc
kernel_type linear
nr_class 3
total_sv 3
rho 0.19347834302377792 0.5856234580025339 0.5024462923483951
label 1 2 3
probA 0.6931471784024834 0.6931471784024834 0.6931471784024834
probB 2.391895380739567E-16 2.391895380739567E-16 2.391895380739567E-16
nr_sv 1 1 1
SV
0.06888823479370074 0.09152307082354126 1:0.563961524728 3:0.61847081708 4:0.454942940022 8:0.471715029977 11:0.442363872556 13:0.425591782601 14:0.425591782601 15:0.425591782601 19:0.425591782601 21:0.425591782601 22:0.442363872556 30:0.442363872556 31:0.425591782601 32:0.425591782601 34:0.425591782601 42:0.425591782601 50:0.706524289343 51:0.505259209886 52:0.450749917533 55:0.438170850067 58:0.417205737624 68:0.446556895044 69:0.442363872556 71:0.438170850067 77:0.425591782601 78:0.425591782601 80:0.505259209886 82:0.475908052465 83:0.475908052465 84:0.442363872556 86:0.438170850067 105:0.438170850067 106:0.438170850067 111:0.425591782601 114:0.425591782601 115:0.425591782601 116:0.425591782601 161:0.42978480509 233:0.421398760112 283:0.467522007488 324:0.438170850067 348:0.42978480509 349:0.42978480509 351:0.49268014242 434:0.433977827578 435:0.433977827578 438:0.42978480509 440:0.467522007488 443:0.417205737624 447:0.417205737624 451:0.42978480509 452:0.467522007488 459:0.417205737624 463:0.484294097443 470:0.42978480509 475:0.433977827578 476:0.433977827578 477:0.421398760112 478:0.438170850067 480:0.421398760112 481:0.421398760112 482:0.438170850067 551:0.454942940022 563:0.438170850067 572:0.438170850067 588:0.42978480509 597:0.42978480509 668:0.42978480509 688:0.421398760112 792:0.471715029977 809:0.450749917533 810:0.433977827578 811:0.433977827578 818:0.417205737624 844:0.425591782601 846:0.42978480509 888:0.417205737624 890:0.438170850067 891:0.417205737624 894:0.425591782601 906:0.421398760112 920:0.425591782601 933:0.421398760112 944:0.417205737624 1015:0.484294097443 1027:0.433977827578 1119:0.421398760112 
-0.06888823479370074 0.1399548548840025 1181:0.356390450478 1182:0.360939147996 1184:0.438721875541 1201:0.389141072603 1202:0.379588807816 1232:0.406100423007 1234:0.316361912326 1377:0.302715819774 1404:0.402402998822 1504:0.403635473551 1519:0.45046951323 1522:0.402402998822 1523:0.402402998822 1682:0.417192695563 1786:0.402402998822 1824:0.403635473551 1825:0.402402998822 1861:0.402402998822 1887:0.402402998822 2011:0.402402998822 2034:0.425820018662 2123:0.403635473551 2216:0.402402998822 2220:0.402402998822 2221:0.403635473551 2246:0.402402998822 2282:0.471421583613 2330:0.402402998822 2375:0.403635473551 2399:0.403635473551 2400:0.408565372464 2459:0.402402998822 2604:0.404867948279 2605:0.403635473551 2606:0.403635473551 2691:0.402402998822 2703:0.402402998822 2704:0.402402998822 2727:0.411030321921 2738:0.403635473551 2815:0.402402998822 2856:0.415960220835 2894:0.402402998822 2895:0.402402998822 3051:0.402402998822 3065:0.413495271378 3092:0.402402998822 3136:0.402402998822 3137:0.402402998822 3153:0.409797847193 3231:0.406100423007 3267:0.443074664859 3515:0.455399412143 3518:0.402402998822 3550:0.446772089045 3639:0.404867948279 3908:0.403635473551 3917:0.406100423007 3919:0.414727746106 3923:0.402402998822 3933:0.406100423007 3934:0.402402998822 3971:0.406100423007 4056:0.402402998822 4128:0.454166937415 4383:0.402402998822 4410:0.424587543933 4538:0.402402998822 4552:0.407332897736 4610:0.402402998822 4642:0.418425170291 
-0.09152307082354126 -0.1399548548840025 1181:0.381971782187 1182:0.386337173984 1184:0.438721875541 1201:0.394340392277 1202:0.384882043385 1234:0.341228125421 1377:0.320128731738 4735:0.40609735715 4759:0.469180441756 4893:0.408068703544 4940:0.40609735715 4949:0.500721984059 4959:0.40609735715 4961:0.40609735715 5235:0.40609735715 5245:0.500721984059 5493:0.425810821089 5546:0.40609735715 5615:0.47115178815 5797:0.40609735715 5804:0.40609735715 5830:0.449466977816 6001:0.40609735715 6046:0.40609735715 6052:0.445524285029 6205:0.419896781907 
