svm_type c_svc
kernel_type linear
nr_class 3
total_sv 3
rho -0.061810472556143636 -0.036714156854207036 0.024372622130262034
label 1 2 3
probA 0.6931471784024834 0.6931471784024834 0.6931471784024834
probB 2.391895380739567E-16 2.391895380739567E-16 2.391895380739567E-16
nr_sv 1 1 1
SV
0.014730302635975913 0.014818982937297932 0:0.170800119485 1:0.529329079439 2:0.0 3:0.0 4:0.0 5:0.164102075584 6:0.0 7:0.0 8:0.408339575567 9:0.0 10:0.0 11:0.450685901923 12:0.450685901923 13:0.468834327503 14:0.450685901923 15:0.173032800786 16:0.0 17:0.61402173215 18:0.19312693249 19:0.0 20:0.164102075584 21:0.0 22:0.0 23:0.0 24:0.159636712983 25:0.0 26:0.420438525955 27:0.155171350382 28:0.420438525955 29:0.420438525955 30:0.420438525955 31:0.157404031683 32:0.420438525955 33:0.408339575567 34:0.408339575567 35:0.408339575567 36:0.408339575567 37:0.0 38:0.0 39:0.0 40:0.0 41:0.152938669082 42:0.0 43:0.152938669082 44:0.159636712983 45:0.0 46:0.0 47:0.0 48:0.0 49:0.0 50:0.168567438185 51:0.0 52:0.0 53:0.414389050761 54:0.155171350382 55:0.161869394284 56:0.0 57:0.161869394284 58:0.456735377116 59:0.0 60:0.0 61:0.414389050761 62:0.0 63:0.0 64:0.152938669082 65:0.152938669082 66:0.159636712983 67:0.0 68:0.166334756884 69:0.0 70:0.0 71:0.155171350382 72:0.0 73:0.408339575567 74:0.0 75:0.155171350382 76:0.155171350382 77:0.150705987781 78:0.0 79:0.0 80:0.0 81:0.0 82:0.0 83:0.0 84:0.0 85:0.0 86:0.155171350382 87:0.152938669082 88:0.408339575567 89:0.408339575567 90:0.408339575567 91:0.408339575567 92:0.408339575567 93:0.408339575567 94:0.408339575567 95:0.408339575567 96:0.155171350382 97:0.408339575567 98:0.408339575567 99:0.408339575567 100:0.408339575567 101:0.408339575567 102:0.150705987781 103:0.150705987781 104:0.408339575567 105:0.426488001148 106:0.408339575567 107:0.408339575567 108:0.408339575567 109:0.408339575567 110:0.150705987781 111:0.408339575567 112:0.0 113:0.408339575567 114:0.408339575567 115:0.408339575567 116:0.408339575567 117:0.408339575567 118:0.408339575567 119:0.408339575567 120:0.408339575567 121:0.408339575567 122:0.408339575567 123:0.408339575567 124:0.408339575567 125:0.408339575567 126:0.408339575567 127:0.408339575567 128:0.150705987781 129:0.152938669082 130:0.150705987781 131:0.408339575567 132:0.408339575567 133:0.408339575567 134:0.408339575567 135:0.408339575567 136:0.408339575567 137:0.408339575567 138:0.408339575567 139:0.150705987781 140:0.408339575567 141:0.408339575567 142:0.408339575567 143:0.408339575567 144:0.408339575567 145:0.408339575567 146:0.408339575567 147:0.408339575567 148:0.150705987781 149:0.408339575567 150:0.408339575567 151:0.159636712983 152:0.420438525955 153:0.0 154:0.152938669082 155:0.179730844687 156:0.150705987781 157:0.402290100374 158:0.0 159:0.402290100374 160:0.0 161:0.408339575567 162:0.157404031683 163:0.402290100374 164:0.402290100374 165:0.148473306481 166:0.0 167:0.148473306481 168:0.402290100374 169:0.148473306481 170:0.402290100374 171:0.0 172:0.0 173:0.0 174:0.0 175:0.0 176:0.150705987781 177:0.444636426729 178:0.150705987781 179:0.159636712983 180:0.164102075584 181:0.426488001148 182:0.0 183:0.157404031683 184:0.426488001148 185:0.0 186:0.0 187:0.420438525955 188:0.148473306481 189:0.408339575567 190:0.0 191:0.402290100374 192:0.408339575567 193:0.408339575567 194:0.408339575567 195:0.432537476342 196:0.150705987781 197:0.150705987781 198:0.177498163387 199:0.402290100374 200:0.0 201:0.152938669082 202:0.0 203:0.408339575567 204:0.152938669082 205:0.148473306481 206:0.0 207:0.408339575567 208:0.408339575567 209:0.0 210:0.402290100374 211:0.0 212:0.0 213:0.161869394284 214:0.0 215:0.148473306481 216:0.0 217:0.0 218:0.0 219:0.420438525955 220:0.155171350382 221:0.155171350382 222:0.408339575567 223:0.150705987781 224:0.0 225:0.148473306481 226:0.0 227:0.148473306481 228:0.148473306481 229:0.148473306481 230:0.0 231:0.148473306481 232:0.402290100374 233:0.420438525955 234:0.408339575567 235:0.402290100374 236:0.408339575567 237:0.408339575567 238:0.402290100374 239:0.408339575567 240:0.150705987781 241:0.402290100374 242:0.408339575567 243:0.402290100374 244:0.402290100374 245:0.408339575567 246:0.402290100374 247:0.402290100374 248:0.0 249:0.0 250:0.170800119485 251:0.46278485231 252:0.0 253:0.46278485231 254:0.0 255:0.0 256:0.199824976391 257:0.199824976391 258:0.46278485231 259:0.170800119485 260:0.46278485231 261:0.46278485231 262:0.46278485231 263:0.170800119485 264:0.46278485231 265:0.0 266:0.46278485231 267:0.46278485231 268:0.170800119485 269:0.0 270:0.46278485231 271:0.46278485231 272:0.0 273:0.46278485231 274:0.432537476342 275:0.0 276:0.414389050761 277:0.0 278:0.420438525955 279:0.414389050761 280:0.414389050761 281:0.0 282:0.420438525955 283:0.152938669082 284:0.414389050761 285:0.0 286:0.0 287:0.414389050761 288:0.152938669082 289:0.420438525955 290:0.414389050761 291:0.0 292:0.414389050761 293:0.152938669082 294:0.414389050761 295:0.414389050761 296:0.414389050761 297:0.414389050761 298:0.414389050761 299:0.414389050761 300:0.414389050761 301:0.414389050761 302:0.414389050761 303:0.414389050761 304:0.414389050761 305:0.414389050761 306:0.414389050761 307:0.414389050761 308:0.414389050761 309:0.0 310:0.408339575567 311:0.0 312:0.402290100374 313:0.0 314:0.402290100374 315:0.402290100374 316:0.402290100374 317:0.408339575567 318:0.420438525955 319:0.414389050761 320:0.402290100374 321:0.408339575567 322:0.408339575567 323:0.408339575567 324:0.402290100374 325:0.0 326:0.0 327:0.402290100374 328:0.150705987781 329:0.402290100374 330:0.402290100374 331:0.148473306481 332:0.402290100374 333:0.402290100374 334:0.148473306481 335:0.402290100374 336:0.402290100374 337:0.402290100374 338:0.0 339:0.0 340:0.402290100374 341:0.402290100374 342:0.402290100374 343:0.402290100374 344:0.426488001148 345:0.0 346:0.402290100374 347:0.0 348:0.402290100374 349:0.402290100374 350:0.0 351:0.150705987781 352:0.402290100374 353:0.402290100374 354:0.402290100374 355:0.402290100374 356:0.402290100374 357:0.402290100374 358:0.408339575567 359:0.408339575567 360:0.148473306481 361:0.402290100374 362:0.402290100374 363:0.402290100374 364:0.402290100374 365:0.402290100374 366:0.402290100374 367:0.402290100374 368:0.402290100374 369:0.402290100374 370:0.402290100374 371:0.402290100374 372:0.148473306481 373:0.148473306481 374:0.402290100374 375:0.148473306481 376:0.148473306481 377:0.402290100374 378:0.402290100374 379:0.402290100374 380:0.402290100374 381:0.148473306481 382:0.148473306481 383:0.148473306481 384:0.148473306481 385:0.148473306481 386:0.148473306481 387:0.408339575567 388:0.402290100374 389:0.402290100374 390:0.148473306481 391:0.0 392:0.402290100374 393:0.402290100374 394:0.414389050761 395:0.148473306481 396:0.148473306481 397:0.152938669082 398:0.402290100374 399:0.402290100374 400:0.402290100374 401:0.402290100374 402:0.148473306481 403:0.402290100374 404:0.148473306481 405:0.402290100374 406:0.414389050761 407:0.402290100374 408:0.0 409:0.402290100374 410:0.0 411:0.402290100374 412:0.148473306481 413:0.148473306481 414:0.402290100374 415:0.148473306481 416:0.150705987781 417:0.402290100374 418:0.0 419:0.150705987781 420:0.148473306481 421:0.402290100374 422:0.402290100374 423:0.402290100374 424:0.402290100374 425:0.402290100374 426:0.402290100374 427:0.402290100374 428:0.402290100374 429:0.402290100374 430:0.408339575567 431:0.402290100374 432:0.408339575567 433:0.408339575567 434:0.408339575567 435:0.408339575567 436:0.408339575567 437:0.408339575567 438:0.420438525955 439:0.408339575567 440:0.408339575567 441:0.408339575567 442:0.402290100374 443:0.148473306481 444:0.402290100374 445:0.402290100374 446:0.150705987781 447:0.402290100374 448:0.402290100374 449:0.402290100374 450:0.402290100374 451:0.402290100374 452:0.148473306481 453:0.402290100374 454:0.402290100374 455:0.402290100374 456:0.0 457:0.402290100374 458:0.402290100374 459:0.402290100374 460:0.402290100374 461:0.402290100374 462:0.148473306481 463:0.402290100374 464:0.402290100374 465:0.402290100374 466:0.402290100374 467:0.402290100374 468:0.402290100374 469:0.402290100374 470:0.402290100374 471:0.402290100374 472:0.402290100374 473:0.402290100374 474:0.402290100374 475:0.402290100374 476:0.402290100374 477:0.402290100374 478:0.402290100374 479:0.408339575567 480:0.402290100374 481:0.402290100374 482:0.402290100374 483:0.402290100374 484:0.402290100374 485:0.402290100374 486:0.402290100374 487:0.402290100374 488:0.402290100374 489:0.402290100374 490:0.402290100374 491:0.402290100374 492:0.402290100374 493:0.402290100374 494:0.402290100374 495:0.402290100374 496:0.402290100374 497:0.402290100374 498:0.402290100374 499:0.148473306481 500:0.148473306481 501:0.148473306481 502:0.408339575567 503:0.402290100374 504:0.402290100374 505:0.402290100374 506:0.402290100374 507:0.402290100374 508:0.402290100374 509:0.402290100374 510:0.402290100374 511:0.0 512:0.402290100374 513:0.402290100374 514:0.402290100374 515:0.402290100374 516:0.402290100374 517:0.402290100374 518:0.148473306481 519:0.402290100374 520:0.402290100374 521:0.402290100374 522:0.402290100374 523:0.402290100374 524:0.157404031683 525:0.0 526:0.420438525955 527:0.148473306481 528:0.148473306481 529:0.402290100374 530:0.402290100374 531:0.148473306481 532:0.402290100374 533:0.150705987781 534:0.148473306481 535:0.402290100374 536:0.0 537:0.0 538:0.402290100374 539:0.0 540:0.402290100374 541:0.150705987781 542:0.402290100374 543:0.402290100374 544:0.148473306481 545:0.402290100374 546:0.402290100374 547:0.402290100374 548:0.402290100374 549:0.402290100374 550:0.402290100374 551:0.402290100374 552:0.0 553:0.0 554:0.148473306481 555:0.402290100374 556:0.148473306481 557:0.0 558:0.402290100374 559:0.0 560:0.402290100374 561:0.402290100374 562:0.402290100374 563:0.402290100374 564:0.150705987781 565:0.148473306481 566:0.402290100374 567:0.402290100374 568:0.0 569:0.0 570:0.402290100374 571:0.402290100374 572:0.402290100374 573:0.148473306481 574:0.402290100374 575:0.402290100374 576:0.402290100374 577:0.402290100374 578:0.148473306481 579:0.0 580:0.402290100374 581:0.157404031683 582:0.408339575567 583:0.402290100374 584:0.0 585:0.402290100374 586:0.402290100374 587:0.148473306481 588:0.402290100374 589:0.402290100374 590:0.402290100374 591:0.402290100374 592:0.402290100374 593:0.408339575567 594:0.408339575567 595:0.402290100374 596:0.402290100374 597:0.148473306481 598:0.402290100374 599:0.148473306481 600:0.148473306481 601:0.148473306481 602:0.148473306481 603:0.402290100374 604:0.148473306481 605:0.402290100374 606:0.0 607:0.402290100374 608:0.148473306481 609:0.402290100374 610:0.402290100374 611:0.148473306481 612:0.402290100374 613:0.402290100374 614:0.402290100374 615:0.402290100374 616:0.148473306481 617:0.0 618:0.148473306481 619:0.402290100374 620:0.148473306481 621:0.402290100374 622:0.148473306481 623:0.0 624:0.0 625:0.402290100374 626:0.148473306481 
-0.014730302635975913 0.014181378944166666 2:0.0 3:0.0 4:0.0 5:0.154537965616 6:0.0 7:0.0 9:0.0 10:0.0 15:0.152463630507 16:0.0 18:0.154537965616 19:0.0 20:0.150389295398 21:0.0 22:0.0 23:0.0 24:0.150389295398 25:0.0 27:0.150389295398 31:0.150389295398 37:0.0 38:0.0 39:0.0 40:0.0 41:0.148314960289 42:0.0 43:0.148314960289 44:0.148314960289 45:0.0 46:0.0 47:0.0 48:0.0 49:0.0 50:0.152463630507 51:0.0 52:0.0 54:0.150389295398 55:0.150389295398 56:0.0 59:0.0 60:0.0 62:0.0 63:0.0 64:0.148314960289 65:0.150389295398 66:0.152463630507 67:0.0 68:0.154537965616 69:0.0 70:0.0 71:0.148314960289 72:0.0 74:0.0 75:0.148314960289 76:0.148314960289 77:0.150389295398 78:0.0 79:0.0 80:0.0 81:0.0 82:0.0 83:0.0 84:0.0 85:0.0 86:0.152463630507 96:0.154537965616 103:0.148314960289 112:0.0 139:0.148314960289 151:0.169058311379 153:0.0 154:0.150389295398 155:0.148314960289 156:0.150389295398 158:0.0 160:0.0 162:0.152463630507 166:0.0 167:0.154537965616 169:0.148314960289 171:0.0 172:0.0 173:0.0 174:0.0 175:0.0 179:0.150389295398 180:0.150389295398 182:0.0 185:0.0 186:0.0 188:0.148314960289 190:0.0 196:0.150389295398 197:0.150389295398 198:0.150389295398 200:0.0 201:0.150389295398 202:0.0 204:0.150389295398 205:0.148314960289 206:0.0 209:0.0 211:0.0 212:0.0 213:0.154537965616 214:0.0 215:0.148314960289 216:0.0 217:0.0 218:0.0 220:0.156612300725 221:0.150389295398 223:0.148314960289 224:0.0 226:0.0 229:0.148314960289 230:0.0 231:0.148314960289 240:0.148314960289 248:0.0 249:0.0 252:0.0 254:0.0 255:0.0 256:0.179429986923 257:0.181504322032 265:0.0 268:0.154537965616 269:0.0 272:0.0 275:0.0 277:0.0 281:0.0 285:0.0 286:0.0 291:0.0 293:0.148314960289 309:0.0 311:0.0 313:0.0 325:0.0 326:0.0 328:0.150389295398 331:0.150389295398 334:0.150389295398 338:0.0 339:0.0 345:0.0 347:0.0 350:0.0 351:0.148314960289 372:0.148314960289 373:0.148314960289 375:0.154537965616 376:0.148314960289 381:0.148314960289 384:0.148314960289 385:0.152463630507 390:0.148314960289 391:0.0 396:0.148314960289 397:0.150389295398 402:0.148314960289 404:0.148314960289 408:0.0 410:0.0 412:0.150389295398 416:0.148314960289 418:0.0 419:0.150389295398 420:0.150389295398 443:0.150389295398 446:0.150389295398 452:0.150389295398 456:0.0 462:0.154537965616 511:0.0 524:0.148314960289 525:0.0 527:0.154537965616 528:0.148314960289 533:0.152463630507 536:0.0 537:0.0 539:0.0 541:0.150389295398 544:0.148314960289 552:0.0 553:0.0 554:0.152463630507 556:0.164909641161 557:0.0 559:0.0 564:0.148314960289 565:0.154537965616 568:0.0 569:0.0 573:0.148314960289 578:0.150389295398 579:0.0 584:0.0 597:0.150389295398 604:0.150389295398 606:0.0 608:0.148314960289 611:0.148314960289 616:0.150389295398 617:0.0 620:0.150389295398 622:0.150389295398 623:0.0 624:0.0 626:0.148314960289 627:0.413101928379 628:0.452444969177 629:0.418722362779 630:0.40186105958 631:0.40186105958 632:0.514269747574 633:0.486167575576 634:0.40186105958 635:0.40186105958 636:0.413101928379 637:0.40186105958 638:0.40186105958 639:0.40748149398 640:0.148314960289 641:0.40186105958 642:0.40186105958 643:0.40186105958 644:0.40186105958 645:0.40748149398 646:0.40748149398 647:0.40186105958 648:0.40186105958 649:0.413101928379 650:0.154537965616 651:0.40186105958 652:0.40186105958 653:0.40186105958 654:0.148314960289 655:0.148314960289 656:0.40186105958 657:0.40186105958 658:0.40186105958 659:0.40186105958 660:0.40186105958 661:0.40186105958 662:0.40186105958 663:0.40186105958 664:0.40186105958 665:0.40186105958 666:0.40186105958 667:0.463685837977 668:0.435583665978 669:0.429963231579 670:0.429963231579 671:0.40186105958 672:0.418722362779 673:0.435583665978 674:0.429963231579 675:0.160760970943 676:0.429963231579 677:0.160760970943 678:0.418722362779 679:0.148314960289 680:0.148314960289 681:0.40186105958 682:0.158686635834 683:0.40186105958 684:0.413101928379 685:0.40186105958 686:0.413101928379 687:0.413101928379 688:0.413101928379 689:0.413101928379 690:0.413101928379 691:0.156612300725 692:0.413101928379 693:0.413101928379 694:0.413101928379 695:0.413101928379 696:0.40748149398 697:0.413101928379 698:0.162835306052 699:0.435583665978 700:0.40748149398 701:0.40748149398 702:0.40748149398 703:0.40186105958 704:0.150389295398 705:0.413101928379 706:0.40186105958 707:0.152463630507 708:0.40186105958 709:0.40748149398 710:0.148314960289 711:0.40186105958 712:0.40186105958 713:0.156612300725 714:0.40186105958 715:0.40186105958 716:0.152463630507 717:0.40186105958 718:0.40186105958 719:0.40186105958 720:0.150389295398 721:0.40748149398 722:0.40186105958 723:0.40186105958 724:0.40186105958 725:0.148314960289 726:0.40186105958 727:0.40186105958 728:0.40186105958 729:0.40186105958 730:0.40186105958 731:0.40186105958 732:0.40186105958 733:0.40186105958 734:0.40186105958 735:0.40186105958 736:0.40186105958 737:0.40186105958 738:0.40186105958 739:0.40186105958 740:0.40186105958 741:0.40186105958 742:0.40186105958 743:0.40186105958 744:0.40186105958 745:0.40186105958 746:0.40186105958 747:0.40186105958 748:0.40186105958 749:0.40186105958 750:0.40186105958 751:0.413101928379 752:0.40186105958 753:0.40186105958 754:0.148314960289 755:0.40186105958 756:0.40748149398 757:0.40186105958 758:0.40748149398 759:0.40186105958 760:0.154537965616 761:0.40186105958 762:0.40186105958 763:0.162835306052 764:0.418722362779 765:0.418722362779 766:0.424342797179 767:0.418722362779 768:0.446824534778 769:0.162835306052 770:0.413101928379 771:0.40748149398 772:0.40748149398 773:0.40748149398 774:0.40748149398 775:0.40748149398 776:0.40748149398 777:0.40748149398 778:0.40748149398 779:0.40748149398 780:0.40748149398 781:0.154537965616 782:0.40748149398 783:0.150389295398 784:0.40748149398 785:0.429963231579 786:0.413101928379 787:0.40748149398 788:0.40748149398 789:0.418722362779 790:0.40748149398 791:0.154537965616 792:0.40748149398 793:0.40748149398 794:0.150389295398 795:0.154537965616 796:0.418722362779 797:0.40748149398 798:0.152463630507 799:0.150389295398 800:0.154537965616 801:0.40748149398 802:0.40748149398 803:0.418722362779 804:0.418722362779 805:0.40748149398 806:0.40748149398 807:0.40748149398 808:0.40748149398 809:0.40748149398 810:0.40748149398 811:0.150389295398 812:0.40748149398 813:0.150389295398 814:0.150389295398 815:0.154537965616 816:0.40748149398 817:0.40748149398 818:0.418722362779 819:0.150389295398 820:0.418722362779 821:0.150389295398 822:0.413101928379 823:0.40748149398 824:0.156612300725 825:0.418722362779 826:0.418722362779 827:0.40748149398 828:0.40748149398 829:0.150389295398 830:0.150389295398 831:0.40748149398 832:0.413101928379 833:0.418722362779 834:0.40748149398 835:0.40748149398 836:0.150389295398 837:0.150389295398 838:0.150389295398 839:0.40748149398 840:0.40748149398 841:0.40748149398 842:0.40748149398 843:0.40748149398 844:0.40748149398 845:0.40748149398 846:0.40748149398 847:0.40748149398 848:0.150389295398 849:0.40748149398 850:0.418722362779 851:0.40186105958 852:0.40186105958 853:0.152463630507 854:0.40186105958 855:0.40186105958 856:0.40748149398 857:0.40186105958 858:0.40186105958 859:0.40186105958 860:0.40186105958 861:0.150389295398 862:0.40186105958 863:0.40748149398 864:0.40186105958 865:0.40748149398 866:0.40748149398 867:0.40748149398 868:0.150389295398 869:0.40748149398 870:0.40186105958 871:0.40186105958 872:0.40186105958 873:0.40186105958 874:0.148314960289 875:0.40748149398 876:0.40748149398 877:0.150389295398 878:0.40748149398 879:0.40748149398 880:0.40748149398 881:0.40748149398 882:0.40748149398 883:0.40748149398 884:0.40748149398 885:0.40186105958 886:0.418722362779 887:0.40186105958 888:0.40186105958 889:0.40186105958 890:0.40186105958 891:0.40186105958 892:0.413101928379 893:0.40186105958 894:0.40186105958 895:0.40186105958 896:0.40186105958 897:0.40186105958 898:0.40186105958 899:0.40186105958 900:0.150389295398 901:0.40186105958 902:0.40748149398 903:0.40748149398 904:0.40748149398 905:0.40186105958 906:0.40186105958 907:0.40186105958 908:0.152463630507 909:0.40186105958 910:0.152463630507 911:0.40186105958 912:0.40186105958 913:0.40186105958 914:0.40748149398 915:0.40748149398 916:0.40748149398 917:0.40186105958 918:0.40186105958 919:0.40186105958 920:0.40186105958 921:0.40186105958 922:0.40748149398 923:0.40186105958 924:0.40186105958 925:0.40186105958 926:0.40186105958 927:0.40186105958 928:0.40186105958 929:0.40748149398 930:0.40748149398 931:0.40748149398 932:0.40186105958 933:0.40186105958 934:0.40186105958 935:0.40186105958 936:0.148314960289 937:0.40186105958 938:0.40186105958 939:0.40186105958 940:0.40186105958 941:0.40748149398 942:0.40748149398 943:0.40186105958 944:0.40186105958 945:0.40186105958 946:0.40186105958 947:0.148314960289 948:0.40186105958 949:0.40186105958 950:0.148314960289 951:0.40186105958 952:0.148314960289 953:0.40186105958 954:0.40186105958 955:0.40186105958 956:0.40186105958 957:0.40186105958 958:0.40186105958 959:0.40186105958 960:0.40186105958 961:0.40186105958 962:0.40186105958 963:0.148314960289 964:0.148314960289 965:0.40186105958 966:0.40186105958 967:0.40186105958 968:0.148314960289 969:0.40186105958 970:0.40186105958 971:0.40186105958 972:0.40186105958 973:0.148314960289 974:0.40186105958 975:0.40186105958 976:0.148314960289 977:0.40186105958 978:0.40186105958 979:0.40186105958 980:0.40186105958 981:0.40186105958 982:0.40186105958 983:0.40748149398 984:0.40186105958 985:0.40186105958 986:0.40186105958 987:0.40186105958 988:0.40186105958 989:0.40186105958 990:0.40186105958 991:0.40186105958 992:0.40186105958 993:0.40748149398 994:0.148314960289 995:0.40186105958 996:0.40186105958 997:0.40186105958 998:0.40186105958 999:0.40186105958 1000:0.40186105958 1001:0.40186105958 1002:0.40186105958 1003:0.413101928379 1004:0.40186105958 1005:0.150389295398 1006:0.40186105958 1007:0.40186105958 1008:0.148314960289 1009:0.40186105958 1010:0.40186105958 1011:0.40186105958 1012:0.150389295398 1013:0.150389295398 1014:0.148314960289 1015:0.40186105958 1016:0.40186105958 1017:0.150389295398 1018:0.40186105958 1019:0.40186105958 1020:0.40186105958 1021:0.40186105958 1022:0.40186105958 1023:0.40186105958 1024:0.40186105958 1025:0.40186105958 1026:0.40748149398 1027:0.148314960289 1028:0.148314960289 1029:0.40186105958 1030:0.40186105958 1031:0.150389295398 1032:0.40186105958 1033:0.40186105958 1034:0.40186105958 1035:0.40186105958 1036:0.148314960289 1037:0.40186105958 1038:0.413101928379 1039:0.148314960289 1040:0.148314960289 1041:0.40186105958 1042:0.40186105958 1043:0.152463630507 1044:0.40186105958 1045:0.40186105958 1046:0.40186105958 1047:0.40186105958 1048:0.40186105958 1049:0.40186105958 1050:0.40186105958 1051:0.40186105958 1052:0.40186105958 1053:0.40186105958 1054:0.40186105958 1055:0.40186105958 1056:0.40186105958 1057:0.40186105958 1058:0.40186105958 1059:0.40186105958 1060:0.150389295398 1061:0.40186105958 1062:0.40186105958 1063:0.40186105958 1064:0.40186105958 1065:0.148314960289 1066:0.40186105958 1067:0.40186105958 1068:0.40186105958 1069:0.40186105958 1070:0.148314960289 1071:0.40186105958 1072:0.40186105958 1073:0.40186105958 1074:0.40186105958 1075:0.40186105958 1076:0.40186105958 1077:0.40186105958 1078:0.40186105958 1079:0.40186105958 1080:0.148314960289 1081:0.40186105958 1082:0.40186105958 1083:0.40748149398 1084:0.40748149398 1085:0.40186105958 1086:0.40186105958 1087:0.40186105958 1088:0.40748149398 1089:0.40186105958 1090:0.40186105958 1091:0.40186105958 1092:0.148314960289 1093:0.40186105958 1094:0.40186105958 1095:0.150389295398 1096:0.40186105958 1097:0.40186105958 1098:0.40186105958 1099:0.40748149398 1100:0.148314960289 1101:0.148314960289 1102:0.40748149398 1103:0.40186105958 1104:0.40186105958 1105:0.40186105958 1106:0.40186105958 1107:0.40186105958 1108:0.40186105958 1109:0.148314960289 1110:0.40186105958 1111:0.40186105958 1112:0.40186105958 1113:0.40186105958 1114:0.40186105958 1115:0.40186105958 1116:0.40186105958 1117:0.40186105958 1118:0.148314960289 1119:0.40186105958 1120:0.150389295398 1121:0.40186105958 1122:0.148314960289 1123:0.40186105958 1124:0.148314960289 1125:0.148314960289 1126:0.148314960289 1127:0.40186105958 1128:0.40186105958 1129:0.40186105958 1130:0.40186105958 1131:0.40186105958 1132:0.148314960289 1133:0.40186105958 1134:0.148314960289 1135:0.40186105958 1136:0.40186105958 1137:0.40748149398 1138:0.150389295398 1139:0.40186105958 1140:0.40748149398 1141:0.40186105958 1142:0.40186105958 1143:0.40186105958 
-0.014818982937297932 -0.014181378944166666 0:0.151510557619 2:0.0 3:0.0 4:0.0 6:0.0 7:0.0 9:0.0 10:0.0 16:0.0 19:0.0 21:0.0 22:0.0 23:0.0 25:0.0 37:0.0 38:0.0 39:0.0 40:0.0 42:0.0 45:0.0 46:0.0 47:0.0 48:0.0 49:0.0 51:0.0 52:0.0 56:0.0 57:0.156780490058 59:0.0 60:0.0 62:0.0 63:0.0 67:0.0 69:0.0 70:0.0 72:0.0 74:0.0 78:0.0 79:0.0 80:0.0 81:0.0 82:0.0 83:0.0 84:0.0 85:0.0 87:0.1488755914 102:0.151510557619 110:0.151510557619 112:0.0 128:0.1488755914 129:0.1488755914 130:0.1488755914 148:0.151510557619 153:0.0 158:0.0 160:0.0 165:0.1488755914 166:0.0 171:0.0 172:0.0 173:0.0 174:0.0 175:0.0 176:0.151510557619 178:0.1488755914 182:0.0 183:0.1488755914 185:0.0 186:0.0 190:0.0 200:0.0 202:0.0 206:0.0 209:0.0 211:0.0 212:0.0 214:0.0 216:0.0 217:0.0 218:0.0 224:0.0 225:0.151510557619 226:0.0 227:0.159415456278 228:0.19893994957 230:0.0 248:0.0 249:0.0 250:0.1488755914 252:0.0 254:0.0 255:0.0 259:0.151510557619 263:0.154145523839 265:0.0 269:0.0 272:0.0 275:0.0 277:0.0 281:0.0 283:0.201574915789 285:0.0 286:0.0 288:0.1488755914 291:0.0 309:0.0 311:0.0 313:0.0 325:0.0 326:0.0 338:0.0 339:0.0 345:0.0 347:0.0 350:0.0 360:0.1488755914 382:0.172590287375 383:0.151510557619 386:0.1488755914 391:0.0 395:0.151510557619 408:0.0 410:0.0 413:0.151510557619 415:0.1488755914 418:0.0 456:0.0 499:0.1488755914 500:0.1488755914 501:0.1488755914 511:0.0 518:0.151510557619 525:0.0 531:0.1488755914 534:0.154145523839 536:0.0 537:0.0 539:0.0 552:0.0 553:0.0 557:0.0 559:0.0 568:0.0 569:0.0 579:0.0 581:0.1488755914 584:0.0 587:0.1488755914 599:0.1488755914 600:0.1488755914 601:0.1488755914 602:0.151510557619 606:0.0 617:0.0 618:0.1488755914 623:0.0 624:0.0 640:0.1488755914 650:0.154145523839 654:0.1488755914 655:0.1488755914 675:0.151510557619 677:0.151510557619 679:0.151510557619 680:0.154145523839 682:0.1488755914 691:0.154145523839 698:0.151510557619 704:0.1488755914 707:0.151510557619 710:0.154145523839 713:0.154145523839 716:0.1488755914 720:0.1488755914 725:0.151510557619 754:0.191035050911 760:0.151510557619 763:0.1488755914 769:0.156780490058 781:0.151510557619 783:0.1488755914 791:0.1488755914 794:0.1488755914 795:0.1488755914 798:0.167320354936 799:0.151510557619 800:0.151510557619 811:0.1488755914 813:0.154145523839 814:0.1488755914 815:0.151510557619 819:0.1488755914 821:0.151510557619 824:0.151510557619 829:0.154145523839 830:0.151510557619 836:0.1488755914 837:0.154145523839 838:0.156780490058 848:0.1488755914 853:0.154145523839 861:0.151510557619 868:0.151510557619 874:0.1488755914 877:0.1488755914 900:0.151510557619 908:0.151510557619 910:0.156780490058 936:0.151510557619 947:0.151510557619 950:0.151510557619 952:0.1488755914 963:0.1488755914 964:0.1488755914 968:0.1488755914 973:0.154145523839 976:0.151510557619 994:0.191035050911 1005:0.151510557619 1008:0.151510557619 1012:0.154145523839 1013:0.172590287375 1014:0.1488755914 1017:0.151510557619 1027:0.151510557619 1028:0.1488755914 1031:0.1488755914 1036:0.151510557619 1039:0.1488755914 1040:0.154145523839 1043:0.151510557619 1060:0.1488755914 1065:0.1488755914 1070:0.154145523839 1080:0.151510557619 1092:0.185765118472 1095:0.151510557619 1100:0.1488755914 1101:0.1488755914 1109:0.151510557619 1118:0.1488755914 1120:0.1488755914 1122:0.1488755914 1124:0.1488755914 1125:0.1488755914 1126:0.154145523839 1132:0.154145523839 1134:0.151510557619 1138:0.151510557619 1144:0.546169510384 1145:0.410519566628 1146:0.410519566628 1147:0.410519566628 1148:0.446216920248 1149:0.560448451832 1150:0.410519566628 1151:0.410519566628 1152:0.410519566628 1153:0.410519566628 1154:0.410519566628 1155:0.410519566628 1156:0.410519566628 1157:0.439077449524 1158:0.417659037352 1159:0.410519566628 1160:0.424798508076 1161:0.410519566628 1162:0.424798508076 1163:0.410519566628 1164:0.410519566628 1165:0.410519566628 1166:0.410519566628 1167:0.410519566628 1168:0.410519566628 1169:0.410519566628 1170:0.410519566628 1171:0.439077449524 1172:0.410519566628 1173:0.410519566628 1174:0.410519566628 1175:0.410519566628 1176:0.410519566628 1177:0.417659037352 1178:0.410519566628 1179:0.410519566628 1180:0.410519566628 1181:0.410519566628 1182:0.410519566628 1183:0.410519566628 1184:0.410519566628 1185:0.410519566628 1186:0.410519566628 1187:0.410519566628 1188:0.410519566628 1189:0.417659037352 1190:0.50333268604 1191:0.50333268604 1192:0.50333268604 1193:0.50333268604 1194:0.50333268604 1195:0.50333268604 1196:0.510472156764 1197:0.50333268604 1198:0.50333268604 1199:0.517611627488 1200:0.50333268604 1201:0.553308981108 1202:0.410519566628 1203:0.403380095904 1204:0.403380095904 1205:0.424798508076 1206:0.403380095904 1207:0.403380095904 1208:0.403380095904 1209:0.403380095904 1210:0.403380095904 1211:0.403380095904 1212:0.403380095904 1213:0.403380095904 1214:0.410519566628 1215:0.403380095904 1216:0.424798508076 1217:0.417659037352 1218:0.410519566628 1219:0.403380095904 1220:0.410519566628 1221:0.403380095904 1222:0.403380095904 1223:0.403380095904 1224:0.410519566628 1225:0.410519566628 1226:0.410519566628 1227:0.403380095904 1228:0.403380095904 1229:0.410519566628 1230:0.403380095904 1231:0.403380095904 1232:0.403380095904 1233:0.403380095904 1234:0.417659037352 1235:0.403380095904 1236:0.403380095904 1237:0.403380095904 1238:0.403380095904 1239:0.403380095904 1240:0.403380095904 1241:0.403380095904 1242:0.410519566628 1243:0.403380095904 1244:0.410519566628 1245:0.403380095904 1246:0.417659037352 1247:0.403380095904 1248:0.403380095904 1249:0.410519566628 1250:0.417659037352 1251:0.403380095904 1252:0.403380095904 1253:0.403380095904 1254:0.403380095904 1255:0.403380095904 1256:0.403380095904 1257:0.403380095904 1258:0.403380095904 1259:0.403380095904 1260:0.403380095904 1261:0.410519566628 1262:0.446216920248 1263:0.446216920248 1264:0.403380095904 1265:0.403380095904 1266:0.403380095904 1267:0.410519566628 1268:0.403380095904 1269:0.403380095904 1270:0.403380095904 1271:0.410519566628 1272:0.403380095904 1273:0.403380095904 1274:0.403380095904 1275:0.4319379788 1276:0.417659037352 1277:0.417659037352 1278:0.417659037352 1279:0.417659037352 1280:0.417659037352 1281:0.417659037352 1282:0.417659037352 1283:0.417659037352 1284:0.439077449524 1285:0.417659037352 1286:0.417659037352 1287:0.410519566628 1288:0.410519566628 1289:0.410519566628 1290:0.424798508076 1291:0.410519566628 1292:0.410519566628 1293:0.410519566628 1294:0.410519566628 1295:0.410519566628 1296:0.410519566628 1297:0.410519566628 1298:0.410519566628 1299:0.410519566628 1300:0.410519566628 1301:0.410519566628 1302:0.410519566628 1303:0.410519566628 1304:0.410519566628 1305:0.410519566628 1306:0.410519566628 1307:0.410519566628 1308:0.410519566628 1309:0.410519566628 1310:0.410519566628 1311:0.410519566628 1312:0.410519566628 1313:0.410519566628 1314:0.410519566628 1315:0.403380095904 1316:0.403380095904 1317:0.403380095904 1318:0.403380095904 1319:0.403380095904 1320:0.403380095904 1321:0.410519566628 1322:0.403380095904 1323:0.403380095904 1324:0.403380095904 1325:0.410519566628 1326:0.403380095904 1327:0.403380095904 1328:0.410519566628 1329:0.403380095904 1330:0.410519566628 1331:0.403380095904 1332:0.403380095904 1333:0.403380095904 1334:0.403380095904 1335:0.403380095904 1336:0.403380095904 1337:0.403380095904 1338:0.403380095904 1339:0.403380095904 1340:0.403380095904 1341:0.410519566628 1342:0.453356390972 1343:0.410519566628 1344:0.403380095904 1345:0.403380095904 1346:0.403380095904 1347:0.403380095904 1348:0.403380095904 1349:0.403380095904 1350:0.403380095904 1351:0.417659037352 1352:0.403380095904 1353:0.439077449524 1354:0.417659037352 1355:0.410519566628 1356:0.417659037352 1357:0.403380095904 1358:0.403380095904 1359:0.403380095904 1360:0.403380095904 1361:0.403380095904 1362:0.403380095904 1363:0.403380095904 1364:0.403380095904 1365:0.410519566628 1366:0.403380095904 1367:0.403380095904 1368:0.403380095904 1369:0.410519566628 1370:0.403380095904 1371:0.403380095904 1372:0.417659037352 1373:0.403380095904 1374:0.410519566628 1375:0.410519566628 1376:0.403380095904 1377:0.403380095904 1378:0.403380095904 1379:0.403380095904 1380:0.403380095904 1381:0.403380095904 1382:0.403380095904 1383:0.403380095904 1384:0.424798508076 1385:0.403380095904 1386:0.403380095904 1387:0.403380095904 1388:0.403380095904 1389:0.410519566628 1390:0.403380095904 1391:0.403380095904 1392:0.403380095904 1393:0.403380095904 1394:0.403380095904 1395:0.403380095904 1396:0.403380095904 1397:0.403380095904 1398:0.403380095904 1399:0.403380095904 1400:0.403380095904 1401:0.403380095904 1402:0.403380095904 1403:0.403380095904 1404:0.403380095904 1405:0.403380095904 1406:0.403380095904 1407:0.403380095904 1408:0.403380095904 1409:0.403380095904 1410:0.403380095904 1411:0.403380095904 1412:0.403380095904 1413:0.403380095904 1414:0.403380095904 1415:0.403380095904 1416:0.417659037352 1417:0.410519566628 1418:0.403380095904 1419:0.403380095904 1420:0.403380095904 1421:0.403380095904 1422:0.403380095904 1423:0.403380095904 1424:0.403380095904 1425:0.403380095904 1426:0.403380095904 1427:0.410519566628 1428:0.410519566628 1429:0.403380095904 1430:0.403380095904 1431:0.403380095904 1432:0.403380095904 1433:0.403380095904 1434:0.403380095904 1435:0.403380095904 1436:0.403380095904 1437:0.403380095904 1438:0.403380095904 1439:0.403380095904 1440:0.403380095904 1441:0.403380095904 1442:0.403380095904 1443:0.403380095904 1444:0.403380095904 1445:0.403380095904 1446:0.403380095904 1447:0.403380095904 1448:0.403380095904 1449:0.403380095904 1450:0.417659037352 1451:0.403380095904 1452:0.403380095904 1453:0.403380095904 1454:0.403380095904 1455:0.403380095904 1456:0.403380095904 1457:0.403380095904 1458:0.403380095904 1459:0.403380095904 1460:0.403380095904 1461:0.403380095904 1462:0.403380095904 1463:0.403380095904 1464:0.403380095904 1465:0.403380095904 1466:0.403380095904 1467:0.403380095904 1468:0.403380095904 1469:0.403380095904 1470:0.403380095904 1471:0.403380095904 1472:0.403380095904 1473:0.403380095904 1474:0.403380095904 1475:0.403380095904 1476:0.403380095904 1477:0.403380095904 1478:0.403380095904 1479:0.403380095904 1480:0.410519566628 1481:0.403380095904 1482:0.403380095904 1483:0.403380095904 1484:0.403380095904 1485:0.403380095904 1486:0.403380095904 1487:0.403380095904 1488:0.403380095904 1489:0.403380095904 1490:0.403380095904 1491:0.403380095904 1492:0.403380095904 1493:0.403380095904 1494:0.403380095904 1495:0.403380095904 1496:0.403380095904 1497:0.403380095904 1498:0.403380095904 1499:0.403380095904 1500:0.403380095904 1501:0.403380095904 1502:0.403380095904 1503:0.403380095904 1504:0.410519566628 1505:0.403380095904 1506:0.410519566628 1507:0.417659037352 1508:0.403380095904 1509:0.403380095904 1510:0.403380095904 1511:0.403380095904 1512:0.403380095904 1513:0.403380095904 1514:0.403380095904 1515:0.417659037352 1516:0.403380095904 1517:0.403380095904 1518:0.403380095904 1519:0.403380095904 1520:0.403380095904 1521:0.403380095904 1522:0.410519566628 1523:0.410519566628 1524:0.403380095904 1525:0.403380095904 1526:0.403380095904 1527:0.403380095904 1528:0.403380095904 1529:0.403380095904 1530:0.403380095904 1531:0.403380095904 1532:0.403380095904 1533:0.403380095904 1534:0.403380095904 1535:0.403380095904 1536:0.403380095904 1537:0.403380095904 1538:0.403380095904 1539:0.403380095904 1540:0.403380095904 1541:0.403380095904 1542:0.403380095904 1543:0.403380095904 
