svm_type c_svc
kernel_type linear
nr_class 3
total_sv 80
rho 0.1601007086467505 0.15108002288478206 -0.023583296206430997
label 1 2 3
probA -4.67655486374951 -4.887964432412616 -6.671331660954334
probB -0.1498924205055503 0.010723937990702054 0.08756285338125723
nr_sv 15 32 33
SV
0.0025565480055146227 0.0024833522624617198 0:-0.726729828285 1:1.58862400002 2:-0.574227140571 3:-0.461261065243 4:-0.368913097697 5:-0.414559185135 6:-0.0265919774243 7:-0.0521199860915 8:0.545215334734 9:-0.370533791064 10:-0.392926092614 11:-0.102078605346 12:1.8393531901 13:0.112049335124 14:0.354286551311 15:-0.032616911997 16:-0.217461674783 17:-0.20998440654 18:0.40015360438 19:-0.365384615385 20:-0.0566661009434 21:-0.244928120009 22:0.60616413981 23:0.538670583715 24:-0.160128645203 25:1.48900020151 26:0.35803217234 27:1.48900020151 28:1.48900020151 29:0.35803217234 30:1.05683140126 31:1.29776246089 32:1.48900020151 33:1.48900020151 34:1.29776246089 35:0.15271427264 36:1.48900020151 37:0.729908324335 38:1.48900020151 39:-0.138187465788 40:1.48900020151 41:-0.130640899963 42:0.031109095417 43:0.35803217234 44:0.244288015453 45:1.48900020151 46:0.643916307043 47:1.29776246089 48:0.452678566423 49:-0.00992984680269 50:0.643916307043 51:0.337066485107 52:0.970839383967 53:1.31382370721 54:0.3159107403 55:1.14508452431 56:0.0776499902352 57:0.0776499902352 58:0.3159107403 59:0.44843909183 60:0.134747887623 61:0.27969990893 62:0.186836035405 63:0.355575218305 64:0.230683081591 65:0.475297573866 66:0.3159107403 67:0.186836035405 68:1.31382370721 69:1.31382370721 70:1.31382370721 71:1.31382370721 72:0.792471325852 73:1.31382370721 74:1.31382370721 75:1.31382370721 76:1.14508452431 77:1.31382370721 78:1.31382370721 79:1.31382370721 80:0.399422264491 81:1.31382370721 82:1.31382370721 83:1.31382370721 84:1.31382370721 85:1.31382370721 86:1.31382370721 87:1.31382370721 88:1.31382370721 89:-0.231623986425 90:1.31382370721 91:1.31382370721 92:1.31382370721 93:1.31382370721 94:1.31382370721 95:1.31382370721 96:1.31382370721 97:1.31382370721 98:-0.171680269565 99:0.644036756766 100:0.0568375520364 101:0.534850711597 102:1.31382370721 103:1.31382370721 104:1.31382370721 105:-0.0499995008324 106:-0.0802791814867 107:1.02536216875 108:0.50400978739 109:0.399422264491 110:-0.226517639771 111:0.736900630292 112:0.534850711597 113:1.14508452431 114:0.0370165664353 115:0.856622985853 116:0.792471325852 117:0.246389173136 118:1.31382370721 119:0.736900630292 120:1.31382370721 121:0.932498295228 122:-0.134936238851 123:0.3159107403 124:0.3159107403 125:1.31382370721 126:0.26271134478 127:0.230683081591 128:1.31382370721 129:0.534850711597 130:1.31382370721 131:0.399422264491 132:-0.241652472433 133:0.932498295228 134:0.3159107403 135:0.399422264491 136:0.27969990893 137:0.568161447391 138:0.27969990893 139:0.27969990893 140:0.134747887623 141:0.399422264491 142:0.297411604506 143:1.31382370721 144:-0.265714782487 145:0.687883802952 146:0.644036756766 147:1.31382370721 148:-0.265714782487 149:-0.0339912952771 150:1.31382370721 151:-0.0173425939724 152:0.297411604506 153:1.31382370721 154:-0.177500812432 155:0.792471325852 156:0.44843909183 157:-0.171680269565 158:0.3159107403 159:1.31382370721 160:0.3159107403 161:0.44843909183 162:0.230683081591 163:1.31382370721 164:0.399422264491 165:1.31382370721 166:0.297411604506 167:1.31382370721 168:0.50400978739 169:-0.177500812432 170:0.230683081591 171:-0.171680269565 172:1.31382370721 173:1.31382370721 174:1.31382370721 175:1.31382370721 176:1.02536216875 177:1.31382370721 178:1.31382370721 179:1.31382370721 180:0.3159107403 181:0.186836035405 182:1.31382370721 183:-0.134936238851 184:0.568161447391 185:0.475297573866 186:0.110960726029 187:1.31382370721 188:1.31382370721 189:-0.216113047067 190:-0.00876162953178 191:0.355575218305 192:0.932498295228 193:1.31382370721 194:1.31382370721 195:1.31382370721 196:0.215548248929 197:0.644036756766 198:0.3159107403 199:1.02536216875 200:1.14508452431 201:0.792471325852 202:0.33527060449 203:1.31382370721 204:1.31382370721 205:0.475297573866 206:1.31382370721 207:1.31382370721 208:0.932498295228 209:-0.171680269565 210:0.568161447391 211:0.3159107403 212:1.14508452431 213:1.31382370721 214:1.14508452431 215:1.31382370721 216:0.644036756766 217:0.134747887623 218:0.110960726029 219:0.687883802952 220:-0.0577784568709 221:0.687883802952 222:0.687883802952 223:0.3159107403 224:1.31382370721 225:-0.0577784568709 226:1.31382370721 227:0.604372278762 228:0.399422264491 229:1.02536216875 230:0.27969990893 231:0.297411604506 
0.00729387643897763 0.006599029007325035 0:-0.726729828285 2:-0.469822205921 3:-0.461261065243 4:-0.339400049881 5:-0.270364685957 6:-0.0265919774243 7:-0.0521199860915 8:0.355575218305 9:-0.338313461406 10:-0.392926092614 11:-0.0923568334081 13:0.112049335124 14:0.354286551311 15:-0.032616911997 16:-0.217461674783 17:-0.20998440654 18:0.40015360438 19:-0.288461538462 20:-0.0499995008324 21:-0.244928120009 22:0.60616413981 23:0.538670583715 24:-0.160128645203 26:0.35803217234 29:0.35803217234 35:0.15271427264 42:0.0274492018386 43:0.35803217234 44:0.244288015453 46:0.643916307043 48:0.452678566423 49:-0.00992984680269 50:0.643916307043 51:0.297411604506 56:0.0776499902352 57:0.0776499902352 59:0.44843909183 60:0.134747887623 61:0.27969990893 62:0.186836035405 63:0.355575218305 64:0.230683081591 65:0.475297573866 99:0.644036756766 101:0.534850711597 106:-0.0802791814867 108:0.50400978739 109:0.399422264491 110:-0.226517639771 111:0.736900630292 112:0.534850711597 115:0.856622985853 119:0.736900630292 121:0.932498295228 126:0.26271134478 127:0.230683081591 129:0.534850711597 131:0.399422264491 133:0.932498295228 135:0.399422264491 136:0.27969990893 137:0.568161447391 139:0.27969990893 140:0.134747887623 141:0.399422264491 145:0.687883802952 146:0.644036756766 151:-0.0173425939724 152:0.297411604506 154:-0.177500812432 156:0.44843909183 161:0.44843909183 162:0.230683081591 164:0.399422264491 166:0.297411604506 170:0.230683081591 180:0.3159107403 181:0.186836035405 183:-0.134936238851 184:0.568161447391 185:0.475297573866 190:-0.00876162953178 191:0.355575218305 192:1.05683140126 196:0.215548248929 197:0.644036756766 202:0.379973351755 208:0.932498295228 210:0.568161447391 216:0.644036756766 217:0.134747887623 218:0.110960726029 219:0.687883802952 220:-0.0577784568709 227:0.604372278762 228:0.399422264491 230:0.27969990893 232:1.29776246089 233:0.970839383967 234:1.29776246089 235:1.29776246089 236:1.29776246089 237:0.643916307043 238:1.29776246089 239:1.29776246089 240:0.932498295228 241:1.14508452431 242:1.14508452431 243:1.14508452431 244:1.14508452431 245:1.14508452431 246:1.14508452431 247:1.14508452431 248:0.932498295228 249:1.14508452431 250:1.14508452431 251:1.14508452431 252:1.14508452431 253:1.14508452431 254:1.14508452431 255:1.14508452431 256:1.14508452431 257:1.14508452431 258:1.14508452431 259:1.14508452431 260:1.14508452431 261:1.14508452431 262:0.534850711597 263:1.14508452431 264:1.14508452431 265:0.932498295228 266:1.14508452431 267:1.14508452431 268:1.14508452431 269:1.14508452431 270:1.14508452431 271:1.14508452431 272:1.14508452431 273:1.14508452431 274:1.14508452431 275:1.14508452431 276:1.14508452431 277:1.14508452431 278:0.932498295228 279:0.687883802952 280:1.14508452431 281:1.14508452431 282:1.02536216875 283:1.14508452431 284:1.14508452431 285:0.932498295228 286:1.14508452431 287:1.14508452431 288:1.14508452431 289:1.14508452431 290:1.02536216875 291:1.14508452431 292:1.02536216875 293:0.932498295228 294:1.14508452431 295:1.14508452431 296:1.14508452431 297:1.14508452431 298:1.14508452431 299:0.27969990893 300:0.792471325852 301:1.14508452431 302:1.14508452431 303:1.14508452431 304:1.14508452431 305:1.14508452431 306:0.856622985853 307:1.14508452431 308:1.14508452431 
0.023838824970089247 0.022628583939722714 0:-0.726729828285 1:1.30238544146 3:-0.370147768405 8:0.719052108128 9:-0.349053571292 10:-0.370147768405 11:-0.105319195992 14:0.565615371391 19:-0.583333333333 21:-0.437028606291 35:0.194635837678 56:0.112161097006 98:-0.247982611595 140:0.194635837678 152:0.429594539842 154:-0.256390062402 155:1.14468080401 157:-0.247982611595 166:0.429594539842 169:-0.256390062402 170:0.333208895631 171:-0.247982611595 190:-0.0126556871015 205:0.686540940029 209:-0.247982611595 220:-0.0834577710358 309:1.08158699456 310:2.07351016348 311:1.65401097957 312:2.31441202153 313:0.772562138974 314:1.4810786882 315:2.31441202153 316:2.31441202153 317:2.31441202153 318:0.290253273563 319:1.65401097957 320:0.820677646232 321:0.355895472307 322:2.31441202153 323:1.14468080401 324:0.0676130953745 
0.004718566974995347 0.004686230600870928 0:-0.726729828285 2:-0.330615626389 3:-0.529596037871 4:-0.339400049881 5:-0.270364685957 6:-0.0196549398354 7:-0.0339912952771 9:-0.434974450379 10:-0.256256147357 11:-0.102078605346 13:0.0884600014137 14:0.354286551311 15:-0.0257501936819 17:-0.165777163058 18:0.3159107403 19:-0.326923076923 20:-0.0566661009434 21:-0.216113047067 22:0.534850711597 23:0.475297573866 24:-0.141289981062 35:0.134747887623 39:-0.138187465788 41:-0.130640899963 42:0.031109095417 44:0.244288015453 49:-0.00876162953178 51:0.337066485107 54:0.3159107403 56:0.0776499902352 57:0.0776499902352 58:0.3159107403 60:0.134747887623 61:0.27969990893 63:0.402985247412 66:0.3159107403 89:-0.386039977375 100:0.0568375520364 101:0.534850711597 105:-0.0499995008324 106:-0.101686963216 109:0.399422264491 110:-0.28692234371 112:0.534850711597 114:0.0370165664353 117:0.246389173136 122:-0.134936238851 123:0.3159107403 124:0.3159107403 126:0.297739524084 127:0.230683081591 131:0.399422264491 132:-0.241652472433 134:0.3159107403 136:0.31699323012 138:0.27969990893 139:0.27969990893 142:0.297411604506 144:-0.265714782487 145:0.687883802952 148:-0.265714782487 149:-0.0339912952771 151:-0.0173425939724 154:-0.177500812432 158:0.3159107403 160:0.3159107403 161:0.44843909183 162:0.230683081591 164:0.399422264491 166:0.297411604506 181:0.186836035405 183:-0.152927737365 186:0.1257554895 189:-0.216113047067 191:0.355575218305 198:0.3159107403 202:0.33527060449 211:0.3159107403 223:0.3159107403 225:-0.0577784568709 228:0.399422264491 231:0.297411604506 279:0.687883802952 325:0.736900630292 330:0.173190156142 334:1.14508452431 348:0.568161447391 352:1.42983071935 353:-0.146010417605 354:0.479637349563 355:1.16207712459 356:1.05683140126 357:0.1257554895 358:1.48900020151 359:1.81592327843 360:0.0880033222666 361:0.0 362:1.02536216875 363:1.60228524568 364:1.60228524568 365:1.60228524568 366:1.60228524568 367:1.60228524568 368:0.230683081591 369:1.31382370721 370:0.355575218305 371:0.297411604506 372:1.31382370721 373:1.31382370721 374:1.60228524568 375:0.44843909183 376:1.31382370721 377:0.0884600014137 378:0.534850711597 379:1.02536216875 380:1.31382370721 381:1.31382370721 382:0.122684375404 383:1.14508452431 384:1.60228524568 385:0.792471325852 386:0.736900630292 387:0.33527060449 388:0.568161447391 389:1.60228524568 390:0.423209426085 391:0.568161447391 392:0.792471325852 393:1.31382370721 394:0.792471325852 395:0.736900630292 396:1.60228524568 397:0.932498295228 398:1.14508452431 399:1.60228524568 400:0.687883802952 401:1.31382370721 402:1.02536216875 403:0.932498295228 404:1.31382370721 405:1.60228524568 406:0.0468090660285 407:1.31382370721 408:1.02536216875 409:0.856622985853 410:0.568161447391 411:0.423209426085 412:1.31382370721 413:0.792471325852 414:0.568161447391 415:1.31382370721 416:0.399422264491 417:0.856622985853 418:0.644036756766 419:0.0671136798433 420:0.792471325852 421:0.644036756766 422:0.856622985853 423:0.0274492018386 
0.0030891744603074784 0.0029269884825482632 0:-0.726729828285 2:-0.301614255653 3:-0.370147768405 4:-0.287752216204 5:-0.507684799187 6:-0.017535289461 7:-0.0343689763357 9:-0.383958928421 10:-0.370147768405 11:-0.0737234371942 13:0.102220446078 14:0.404010979565 15:-0.026036306945 16:-0.247982611595 17:-0.191564721756 18:0.41068396239 19:-0.375 20:-0.0577772009619 21:-0.249730632166 24:-0.18367697538 26:0.319420859637 35:0.136245086375 37:0.65119272073 39:-0.140897023941 41:-0.133202486236 42:0.0277541929701 43:0.319420859637 49:-0.00885898097103 51:0.386635085858 54:0.319420859637 56:0.0785127679045 57:0.0897288776051 58:0.319420859637 59:0.453421748406 60:0.136245086375 61:0.282807685696 63:0.359526054064 66:0.319420859637 89:-0.234197586274 98:-0.173587828116 100:0.0574690803924 101:0.618049711179 105:-0.0505550508416 106:-0.0927670541624 107:1.03675508174 109:0.403860289652 110:-0.261753717069 114:0.0374278616179 117:0.249126830615 122:-0.136435530394 123:0.319420859637 124:0.319420859637 126:0.265630359722 127:0.233246226942 131:0.403860289652 132:-0.244337499904 134:0.319420859637 136:0.363609881609 137:0.574474352362 138:0.282807685696 139:0.282807685696 140:0.155708670142 142:0.300716177889 144:-0.268667168959 146:0.65119272073 148:-0.268667168959 149:-0.0343689763357 151:-0.017535289461 152:0.300716177889 154:-0.179473043681 156:0.453421748406 157:-0.173587828116 158:0.319420859637 160:0.319420859637 161:0.453421748406 162:0.233246226942 164:0.403860289652 166:0.300716177889 168:0.509609896139 169:-0.179473043681 170:0.233246226942 171:-0.173587828116 180:0.319420859637 183:-0.15592632045 186:0.112193622985 189:-0.218514303146 191:0.359526054064 198:0.319420859637 202:0.338995833429 209:-0.173587828116 210:0.574474352362 211:0.319420859637 217:0.136245086375 220:-0.058420439725 223:0.319420859637 225:-0.058420439725 231:0.300716177889 279:0.695526956319 320:0.574474352362 333:-0.148470382774 346:0.745088415073 391:0.574474352362 395:0.745088415073 402:1.4810786882 409:1.2373443129 413:0.801276562806 424:1.91594163876 425:0.989875450319 426:0.540793497281 427:0.942859387397 428:1.62008841507 429:1.62008841507 430:1.62008841507 431:1.62008841507 432:1.62008841507 433:1.62008841507 434:1.62008841507 435:1.62008841507 436:1.62008841507 437:0.12404753513 438:1.62008841507 439:1.62008841507 440:1.32842174841 441:0.745088415073 442:1.62008841507 443:1.32842174841 444:1.62008841507 445:1.62008841507 446:0.745088415073 447:1.1578076857 448:0.574474352362 449:1.03675508174 450:1.62008841507 451:1.32842174841 452:1.62008841507 453:1.62008841507 454:1.1578076857 455:1.62008841507 456:0.866141019029 457:1.03675508174 458:0.801276562806 459:1.1578076857 460:1.62008841507 461:1.62008841507 462:1.32842174841 463:1.62008841507 464:1.62008841507 465:1.62008841507 466:1.62008841507 467:1.62008841507 468:0.509609896139 469:1.1578076857 470:1.03675508174 471:1.62008841507 472:0.866141019029 473:1.32842174841 474:0.866141019029 475:1.62008841507 476:1.62008841507 
0.022596375310103754 0.015173109921992669 0:-0.726729828285 2:-0.301614255653 3:-0.296118214724 4:-0.383669621605 6:-0.0200403308125 9:-0.349053571292 11:-0.12638303519 13:0.102220446078 14:0.323208783652 15:-0.0297557793657 16:-0.297579133914 19:-0.333333333333 20:-0.0577772009619 24:-0.16326842256 26:0.365052411013 35:0.194635837678 39:-0.176121279926 41:-0.166503107796 42:0.0317190776801 51:0.343675631874 54:0.365052411013 58:0.365052411013 66:0.365052411013 89:-0.334567980392 100:0.0656789490199 105:-0.0577772009619 110:-0.327192146336 114:0.0427746989918 117:0.284716377846 122:-0.15592632045 123:0.365052411013 124:0.365052411013 132:-0.279242857034 134:0.365052411013 138:0.323208783652 139:0.323208783652 142:0.343675631874 144:-0.307048193096 148:-0.307048193096 149:-0.0589182451469 152:0.343675631874 155:0.915744643207 158:0.365052411013 160:0.365052411013 183:-0.15592632045 186:0.128221283412 189:-0.249730632166 198:0.365052411013 211:0.365052411013 223:0.365052411013 225:-0.0667662168286 231:0.343675631874 321:0.284716377846 324:0.0540904762996 330:0.200130847097 342:-0.0667662168286 353:-0.166503107796 371:0.343675631874 377:0.102220446078 502:0.387423809633 525:0.184862950559 557:0.915744643207 568:0.343675631874 576:0.855823506083 577:1.77729442584 578:1.27729442584 579:1.65401097957 580:1.4810786882 581:1.346941982 582:1.32320878365 583:1.85152961723 584:1.85152961723 585:1.85152961723 586:1.85152961723 587:0.851529617226 588:0.744220252263 589:1.0775535856 590:1.0775535856 591:0.989875450319 592:1.85152961723 593:1.85152961723 594:0.365052411013 595:0.851529617226 596:0.656542116985 597:1.18486295056 598:1.51819628389 599:0.794887950078 600:1.32320878365 601:1.18486295056 602:0.915744643207 603:0.461554616745 604:1.32320878365 605:1.32320878365 
0.007493235352300162 0.008765651265812939 0:-0.322991034793 2:-0.263912473697 3:-0.407162545245 4:-0.287752216204 5:-0.390526768605 6:-0.017535289461 7:-0.0343689763357 9:-0.244337499904 10:-0.370147768405 11:-0.0737234371942 14:0.323208783652 16:-0.247982611595 19:-0.375 20:-0.0577772009619 21:-0.218514303146 31:1.48860988161 39:-0.158509151933 41:-0.149852797016 42:0.0277541929701 49:-0.00885898097103 51:0.343675631874 54:0.319420859637 58:0.319420859637 62:0.188911991353 66:0.319420859637 89:-0.234197586274 98:-0.173587828116 100:0.0574690803924 105:-0.0505550508416 110:-0.229034502435 114:0.0374278616179 117:0.249126830615 122:-0.136435530394 123:0.319420859637 124:0.319420859637 132:-0.244337499904 134:0.319420859637 138:0.282807685696 140:0.136245086375 142:0.300716177889 144:-0.268667168959 148:-0.268667168959 149:-0.039278830098 154:-0.179473043681 157:-0.173587828116 158:0.319420859637 160:0.319420859637 169:-0.179473043681 170:0.233246226942 171:-0.173587828116 186:0.112193622985 189:-0.218514303146 190:-0.00885898097103 198:0.319420859637 209:-0.173587828116 211:0.319420859637 218:0.112193622985 220:-0.0834577710358 223:0.319420859637 225:-0.058420439725 231:0.300716177889 233:0.866141019029 324:0.0473291667622 333:-0.129911584927 336:0.453421748406 353:-0.116552175457 360:0.0785127679045 361:0.0 368:0.233246226942 377:0.0894428903183 382:0.12404753513 416:0.403860289652 419:0.0678593873972 424:1.91594163876 426:0.540793497281 477:0.359526054064 528:0.23220261885 571:0.509609896139 575:1.03675508174 606:1.85152961723 607:1.18486295056 608:1.62008841507 609:1.62008841507 610:1.32842174841 611:1.62008841507 612:1.62008841507 613:1.62008841507 614:0.866141019029 615:1.62008841507 616:1.32842174841 617:1.62008841507 618:1.1578076857 619:1.03675508174 620:1.62008841507 621:1.62008841507 622:1.62008841507 623:1.62008841507 624:0.866141019029 625:1.62008841507 626:0.403860289652 627:1.32842174841 628:1.03675508174 629:1.62008841507 630:0.745088415073 631:1.62008841507 632:0.942859387397 633:0.65119272073 634:1.62008841507 635:0.695526956319 636:1.62008841507 637:1.62008841507 638:1.62008841507 639:1.62008841507 640:1.62008841507 641:1.62008841507 642:1.1578076857 643:1.62008841507 644:1.62008841507 645:1.62008841507 646:1.62008841507 647:1.62008841507 648:1.62008841507 649:1.32842174841 650:1.62008841507 651:1.03675508174 652:1.62008841507 653:1.62008841507 
0.031611584042325794 0.011438471997774655 0:-0.678281173066 2:-0.271452830088 3:-0.666265983128 4:-0.268568735123 5:-0.328042485628 6:-0.0210423473531 7:-0.0353509470882 8:0.369798227037 9:-0.33509142844 10:-0.355341857668 11:-0.075829821114 13:0.137997602205 14:0.43633185793 15:-0.0267802014291 16:-0.208305393739 17:-0.17240824958 18:0.383305031564 19:-0.4 20:-0.0519994808657 21:-0.2996767586 24:-0.171431843688 26:0.328547169912 29:0.328547169912 39:-0.147941875138 41:-0.139862610548 42:0.0285471699121 49:-0.00911209471306 51:0.360859413467 54:0.328547169912 58:0.328547169912 59:0.466376655503 63:0.369798227037 66:0.328547169912 80:0.415399155071 89:-0.240888945882 98:-0.178547480348 100:0.0591110541179 105:-0.0606660610099 106:-0.0834903487461 109:0.415399155071 110:-0.274841402922 114:0.0384972290927 117:0.256244740061 122:-0.140333688405 123:0.328547169912 124:0.328547169912 126:0.273219798571 127:0.239910404854 131:0.415399155071 132:-0.25131857133 134:0.328547169912 135:0.415399155071 136:0.290887905287 138:0.290887905287 139:0.290887905287 140:0.16349410365 141:0.415399155071 142:0.309308068686 144:-0.276343373787 148:-0.276343373787 149:-0.0412427716029 152:0.309308068686 154:-0.184600844929 156:0.466376655503 157:-0.178547480348 158:0.328547169912 160:0.328547169912 162:0.239910404854 164:0.415399155071 166:0.309308068686 169:-0.184600844929 170:0.239910404854 171:-0.178547480348 186:0.115399155071 189:-0.22475756895 190:-0.00911209471306 191:0.369798227037 196:0.224170178886 198:0.328547169912 202:0.406795000115 209:-0.178547480348 211:0.328547169912 220:-0.07010452767 223:0.328547169912 225:-0.0600895951457 231:0.309308068686 318:0.208982356965 324:0.0486814286697 330:0.210137389452 333:-0.155893901913 353:-0.159842983484 357:0.115399155071 385:0.824170178886 400:0.715399155071 408:1.0663766555 423:0.0285471699121 425:1.03936922283 427:0.969798227037 437:0.12759175042 448:0.590887905287 456:0.890887905287 468:0.524170178886 469:1.19088790529 489:0.466376655503 498:0.890887905287 500:0.669798227037 506:-0.0984162593053 518:0.766376655503 525:0.166376655503 552:0.273219798571 563:0.34868142867 589:0.969798227037 654:2.50502386842 655:1.24410609809 656:1.6663766555 657:1.6663766555 658:1.6663766555 659:0.969798227037 660:1.3663766555 661:1.3663766555 662:1.6663766555 663:0.969798227037 664:1.19088790529 665:1.3663766555 666:1.0663766555 667:1.3663766555 668:1.19088790529 669:1.3663766555 670:1.3663766555 671:1.3663766555 672:1.3663766555 673:1.0663766555 674:1.3663766555 675:1.3663766555 676:0.969798227037 677:1.0663766555 678:1.3663766555 679:0.890887905287 
0.007991176721702858 0.009783998518957499 0:-0.726729828285 2:-0.45242138348 3:-0.518206875766 4:-0.319724684671 5:-0.390526768605 6:-0.0200403308125 7:-0.0343689763357 9:-0.418864285551 10:-0.259103437883 11:-0.0947872763925 13:0.114998001838 14:0.363609881609 15:-0.0297557793657 16:-0.198386089276 17:-0.191564721756 18:0.41068396239 19:-0.458333333333 20:-0.0577772009619 21:-0.218514303146 22:0.540793497281 23:0.48057865802 24:-0.14285986974 26:0.319420859637 29:0.319420859637 35:0.136245086375 39:-0.176121279926 41:-0.183153418575 42:0.0317190776801 43:0.365052411013 44:0.217943229473 46:0.574474352362 48:0.461554616745 49:-0.0101245496812 50:0.574474352362 51:0.386635085858 54:0.365052411013 57:0.0785127679045 58:0.365052411013 59:0.453421748406 63:0.41088691893 66:0.365052411013 89:-0.267654384313 98:-0.198386089276 99:0.65119272073 100:0.0656789490199 105:-0.0577772009619 106:-0.0927670541624 108:0.509609896139 109:0.403860289652 110:-0.229034502435 112:0.540793497281 114:0.0427746989918 117:0.284716377846 122:-0.15592632045 123:0.365052411013 124:0.365052411013 126:0.303577553968 127:0.266567116505 129:0.540793497281 131:0.403860289652 132:-0.279242857034 134:0.365052411013 136:0.282807685696 137:0.574474352362 138:0.323208783652 139:0.282807685696 142:0.343675631874 144:-0.307048193096 146:0.65119272073 148:-0.307048193096 149:-0.039278830098 151:-0.0200403308125 152:0.300716177889 154:-0.179473043681 156:0.453421748406 157:-0.198386089276 158:0.365052411013 160:0.365052411013 162:0.233246226942 164:0.403860289652 166:0.300716177889 169:-0.205112049922 171:-0.198386089276 181:0.188911991353 183:-0.15592632045 186:0.128221283412 189:-0.249730632166 190:-0.0101245496812 191:0.359526054064 197:0.65119272073 198:0.365052411013 202:0.338995833429 209:-0.198386089276 210:0.574474352362 211:0.365052411013 217:0.136245086375 218:0.112193622985 223:0.365052411013 225:-0.0667662168286 228:0.403860289652 230:0.323208783652 231:0.343675631874 325:0.745088415073 339:0.851529617226 354:0.427911753041 360:0.0785127679045 368:0.233246226942 375:0.518196283893 386:0.745088415073 390:0.427911753041 394:0.801276562806 403:0.942859387397 411:0.427911753041 418:0.65119272073 426:0.540793497281 596:0.574474352362 632:0.942859387397 680:1.85152961723 681:1.85152961723 682:1.85152961723 683:1.85152961723 684:1.85152961723 685:1.03675508174 686:1.62008841507 687:1.62008841507 688:1.1578076857 689:1.32842174841 690:1.1578076857 691:1.62008841507 692:0.801276562806 693:1.62008841507 694:1.62008841507 695:0.112193622985 696:1.1578076857 697:0.0894428903183 698:1.32842174841 
0.0061199262436978635 0.006118215762906708 0:-0.726729828285 2:-0.33931603761 3:-0.518206875766 4:-0.319724684671 5:-0.390526768605 6:-0.017535289461 7:-0.0343689763357 9:-0.349053571292 10:-0.333132991564 11:-0.0737234371942 13:0.102220446078 14:0.323208783652 15:-0.026036306945 16:-0.247982611595 17:-0.215510311975 18:0.365052411013 19:-0.333333333333 20:-0.0577772009619 21:-0.249730632166 24:-0.18367697538 29:0.319420859637 35:0.136245086375 39:-0.158509151933 41:-0.149852797016 42:0.0277541929701 49:-0.00885898097103 51:0.343675631874 54:0.319420859637 56:0.0897288776051 58:0.319420859637 60:0.136245086375 61:0.282807685696 63:0.359526054064 66:0.319420859637 89:-0.234197586274 100:0.0574690803924 101:0.540793497281 105:-0.0505550508416 106:-0.0811711723921 109:0.403860289652 110:-0.294472931703 114:0.0374278616179 117:0.249126830615 122:-0.136435530394 123:0.319420859637 124:0.319420859637 127:0.233246226942 131:0.403860289652 132:-0.244337499904 134:0.319420859637 136:0.323208783652 138:0.282807685696 139:0.323208783652 140:0.136245086375 142:0.300716177889 144:-0.268667168959 148:-0.268667168959 149:-0.0343689763357 154:-0.179473043681 158:0.319420859637 160:0.319420859637 161:0.453421748406 162:0.233246226942 164:0.403860289652 166:0.300716177889 170:0.233246226942 183:-0.136435530394 186:0.112193622985 189:-0.218514303146 190:-0.0101245496812 191:0.359526054064 196:0.217943229473 198:0.319420859637 202:0.338995833429 211:0.319420859637 218:0.112193622985 220:-0.058420439725 221:0.695526956319 223:0.319420859637 225:-0.058420439725 230:0.282807685696 231:0.300716177889 279:0.695526956319 299:0.282807685696 324:0.0608517858371 333:-0.185587978468 342:-0.058420439725 352:1.0775535856 353:-0.133202486236 354:0.427911753041 357:0.144248943838 358:1.89774535487 360:0.0785127679045 361:0.0 369:1.32842174841 372:1.32842174841 373:1.32842174841 376:1.32842174841 380:1.32842174841 381:1.32842174841 388:0.574474352362 390:0.427911753041 391:0.656542116985 392:0.801276562806 393:1.32842174841 398:1.1578076857 400:0.695526956319 401:1.32842174841 402:1.03675508174 404:1.32842174841 407:1.32842174841 409:0.866141019029 412:1.32842174841 415:1.32842174841 416:0.403860289652 478:0.866141019029 491:0.801276562806 543:1.0775535856 556:0.915744643207 589:0.942859387397 700:2.08297081938 701:0.744220252263 702:1.62008841507 703:1.62008841507 704:1.62008841507 705:1.62008841507 706:1.62008841507 707:1.1578076857 708:1.03675508174 709:1.62008841507 710:1.62008841507 711:0.574474352362 712:1.62008841507 713:1.62008841507 714:1.62008841507 715:1.32842174841 716:0.48057865802 717:1.03675508174 718:0.942859387397 719:0.381109556985 720:0.745088415073 721:1.62008841507 722:1.62008841507 723:1.62008841507 724:1.1578076857 725:0.48057865802 726:1.1578076857 727:1.1578076857 728:1.62008841507 729:0.801276562806 730:1.62008841507 731:1.62008841507 732:1.1578076857 733:1.62008841507 734:1.62008841507 
0.011027686156159613 0.01181514481374559 0:-0.363364914142 2:-0.263912473697 3:-0.333132991564 4:-0.255779747737 5:-0.312421414884 6:-0.017535289461 7:-0.039278830098 9:-0.383958928421 10:-0.296118214724 11:-0.0842553567933 13:0.114998001838 14:0.363609881609 15:-0.026036306945 17:-0.191564721756 18:0.319420859637 19:-0.333333333333 20:-0.0505550508416 21:-0.218514303146 24:-0.14285986974 39:-0.140897023941 41:-0.133202486236 42:0.0277541929701 43:0.365052411013 44:0.217943229473 48:0.403860289652 49:-0.0101245496812 51:0.343675631874 54:0.319420859637 57:0.0785127679045 58:0.319420859637 59:0.453421748406 63:0.359526054064 66:0.319420859637 89:-0.234197586274 98:-0.173587828116 100:0.0574690803924 105:-0.0577772009619 106:-0.0811711723921 108:0.509609896139 109:0.403860289652 110:-0.229034502435 114:0.0374278616179 117:0.249126830615 122:-0.136435530394 123:0.319420859637 124:0.319420859637 126:0.265630359722 129:0.540793497281 131:0.403860289652 132:-0.244337499904 134:0.319420859637 136:0.282807685696 137:0.574474352362 138:0.282807685696 140:0.136245086375 142:0.300716177889 144:-0.268667168959 148:-0.268667168959 149:-0.0343689763357 152:0.343675631874 154:-0.205112049922 156:0.453421748406 157:-0.173587828116 158:0.319420859637 160:0.319420859637 162:0.233246226942 164:0.403860289652 169:-0.205112049922 171:-0.173587828116 181:0.188911991353 183:-0.136435530394 185:0.549232752023 186:0.112193622985 189:-0.218514303146 190:-0.0113901183913 191:0.359526054064 196:0.217943229473 197:0.65119272073 198:0.319420859637 202:0.338995833429 209:-0.173587828116 210:0.574474352362 211:0.319420859637 217:0.136245086375 218:0.112193622985 223:0.319420859637 225:-0.058420439725 228:0.403860289652 230:0.282807685696 231:0.300716177889 262:0.540793497281 325:0.851529617226 326:0.942859387397 327:1.32842174841 328:0.989875450319 329:0.915744643207 330:0.17511449121 331:1.03675508174 332:1.03675508174 334:1.1578076857 335:1.32842174841 337:1.32842174841 338:1.32842174841 339:0.745088415073 341:1.32842174841 342:-0.058420439725 343:0.801276562806 345:1.32842174841 346:0.745088415073 348:0.574474352362 349:1.32842174841 350:0.942859387397 351:0.942859387397 424:1.91594163876 
0.007216164670449858 0.007224709151026273 0:-0.726729828285 2:-0.261012336623 3:-0.461261065243 4:-0.28037395425 5:-0.37851056034 6:-0.0173425939724 7:-0.0339912952771 9:-0.338313461406 10:-0.392926092614 11:-0.0729132895327 13:0.100254668269 14:0.391579872502 16:-0.217461674783 17:-0.254191650022 18:0.40015360438 19:-0.326923076923 20:-0.0566661009434 21:-0.244928120009 24:-0.160128645203 26:0.3159107403 35:0.134747887623 39:-0.138187465788 41:-0.130640899963 42:0.0274492018386 43:0.3159107403 49:-0.00992984680269 51:0.337066485107 54:0.3159107403 56:0.0776499902352 57:0.0880033222666 58:0.3159107403 59:0.44843909183 60:0.134747887623 63:0.355575218305 66:0.3159107403 89:-0.231623986425 100:0.0568375520364 105:-0.0566661009434 106:-0.0909830723516 109:0.399422264491 110:-0.347327047649 114:0.0370165664353 117:0.246389173136 119:0.736900630292 122:-0.134936238851 123:0.3159107403 124:0.3159107403 126:0.26271134478 127:0.230683081591 131:0.399422264491 132:-0.273872802091 134:0.3159107403 136:0.31699323012 137:0.568161447391 138:0.27969990893 139:0.27969990893 140:0.15271427264 142:0.297411604506 144:-0.265714782487 146:0.644036756766 148:-0.265714782487 149:-0.0339912952771 151:-0.0173425939724 152:0.297411604506 154:-0.177500812432 156:0.44843909183 158:0.3159107403 160:0.3159107403 161:0.44843909183 164:0.399422264491 166:0.297411604506 170:0.230683081591 180:0.3159107403 183:-0.152927737365 184:0.568161447391 186:0.110960726029 189:-0.216113047067 191:0.355575218305 198:0.3159107403 202:0.33527060449 210:0.568161447391 211:0.3159107403 220:-0.0577784568709 223:0.3159107403 225:-0.0577784568709 231:0.297411604506 318:0.200944574005 321:0.246389173136 330:0.19628217696 333:-0.145615183105 353:-0.11527138232 354:0.423209426085 357:0.1257554895 370:0.355575218305 391:0.568161447391 402:1.02536216875 409:0.856622985853 423:0.0274492018386 437:0.171758125565 443:1.31382370721 446:0.736900630292 448:0.568161447391 449:1.02536216875 451:1.31382370721 456:0.856622985853 458:0.792471325852 468:0.50400978739 470:1.02536216875 472:0.856622985853 473:1.31382370721 489:0.44843909183 490:0.932498295228 517:0.568161447391 545:0.568161447391 552:0.26271134478 578:0.736900630292 602:0.792471325852 676:0.932498295228 716:0.475297573866 732:1.14508452431 739:1.75579627062 740:1.81592327843 741:1.48900020151 742:1.81592327843 743:1.14508452431 744:1.60228524568 745:1.60228524568 746:1.60228524568 747:0.604372278762 748:0.932498295228 749:1.60228524568 750:1.60228524568 751:1.60228524568 752:1.60228524568 753:1.60228524568 754:1.31382370721 755:1.60228524568 756:1.60228524568 757:1.60228524568 758:1.60228524568 759:1.60228524568 760:1.60228524568 761:1.31382370721 762:0.932498295228 763:1.02536216875 764:1.60228524568 765:1.14508452431 766:1.60228524568 767:1.60228524568 768:1.02536216875 769:1.60228524568 770:1.60228524568 771:1.60228524568 772:1.14508452431 773:0.792471325852 774:0.856622985853 
0.013249789535943576 0.013274635676307833 0:-0.726729828285 2:-0.295813981506 3:-0.324591119986 4:-0.339400049881 6:-0.0196549398354 7:-0.0430556406843 9:-0.370533791064 10:-0.256256147357 11:-0.102078605346 13:0.100254668269 14:0.354286551311 15:-0.0257501936819 16:-0.171680269565 18:0.40015360438 19:-0.403846153846 20:-0.0499995008324 21:-0.216113047067 22:0.534850711597 23:0.475297573866 24:-0.160128645203 39:-0.138187465788 41:-0.130640899963 42:0.0274492018386 48:0.399422264491 49:-0.00992984680269 51:0.337066485107 54:0.3159107403 57:0.0776499902352 58:0.3159107403 66:0.3159107403 89:-0.231623986425 100:0.0568375520364 105:-0.0499995008324 106:-0.112390854081 109:0.399422264491 110:-0.28692234371 112:0.534850711597 114:0.0370165664353 117:0.246389173136 122:-0.134936238851 123:0.3159107403 124:0.3159107403 126:0.297739524084 127:0.230683081591 131:0.399422264491 132:-0.241652472433 134:0.3159107403 136:0.27969990893 138:0.27969990893 139:0.27969990893 142:0.297411604506 144:-0.265714782487 148:-0.265714782487 149:-0.0339912952771 154:-0.177500812432 158:0.3159107403 160:0.3159107403 161:0.44843909183 162:0.230683081591 164:0.399422264491 166:0.337066485107 181:0.186836035405 183:-0.134936238851 186:0.110960726029 189:-0.216113047067 191:0.402985247412 196:0.215548248929 198:0.3159107403 202:0.33527060449 205:0.475297573866 211:0.3159107403 223:0.3159107403 225:-0.0577784568709 228:0.452678566423 231:0.297411604506 299:0.27969990893 309:0.677477568023 324:0.0468090660285 333:-0.128483985093 343:0.792471325852 346:0.736900630292 348:0.568161447391 353:-0.130640899963 354:0.423209426085 355:1.02536216875 360:0.0983566542979 361:0.0 368:0.292198570015 370:0.355575218305 375:0.568022849651 379:1.02536216875 382:0.122684375404 386:0.835154047664 388:0.568161447391 390:0.479637349563 391:0.568161447391 392:1.10945985619 394:0.898134169299 397:0.932498295228 403:0.932498295228 410:0.568161447391 411:0.479637349563 414:0.568161447391 418:0.729908324335 419:0.0671136798433 425:0.970839383967 477:0.45039527652 479:1.14508452431 480:1.14508452431 481:1.14508452431 482:1.14508452431 483:1.14508452431 484:1.14508452431 485:1.14508452431 486:0.644036756766 487:1.02536216875 488:1.14508452431 489:0.44843909183 490:0.932498295228 491:0.792471325852 492:0.856622985853 493:0.932498295228 494:1.14508452431 495:1.14508452431 496:1.02536216875 497:0.50400978739 498:0.856622985853 499:0.0884600014137 500:0.644036756766 501:1.02536216875 502:0.33527060449 503:0.792471325852 504:1.14508452431 505:0.856622985853 506:-0.0946310185628 507:0.856622985853 508:1.14508452431 509:1.14508452431 510:1.14508452431 511:1.14508452431 512:0.376921539875 513:1.14508452431 514:1.14508452431 550:1.05683140126 736:1.18116450729 737:0.684955249263 
0.012415981067484113 0.013690459985867143 0:-0.726729828285 1:0.682201897908 2:-0.276479734349 3:-0.320794732617 4:-0.362354642627 5:-0.546737476047 8:0.376646342353 9:-0.349053571292 10:-0.468853839979 11:-0.0772340770605 13:0.127775557598 14:0.457879110174 16:-0.214918263382 17:-0.207528448569 19:-0.416666666667 20:-0.052962434215 21:-0.437028606291 24:-0.14966272068 35:0.142732947631 39:-0.152638442602 41:-0.144302693423 42:0.0290758212068 49:-0.00928083720774 51:0.372315267863 54:0.334631376762 58:0.334631376762 65:0.503463356021 66:0.334631376762 80:0.423091732016 89:-0.245349852287 98:-0.181853915169 100:0.0602057032682 105:-0.052962434215 106:-0.0850364663155 110:-0.370817765848 114:0.0392101407425 117:0.260990013025 122:-0.142932460413 123:0.334631376762 124:0.334631376762 127:0.28878104288 132:-0.255972618948 134:0.334631376762 138:0.296274718348 140:0.142732947631 142:0.315035995884 144:-0.281460843672 148:-0.281460843672 149:-0.0360055942565 151:-0.0183703032448 157:-0.181853915169 158:0.334631376762 160:0.334631376762 169:-0.188019379095 170:0.244353190129 171:-0.181853915169 186:0.117536176461 189:-0.228919746153 190:-0.00928083720774 198:0.334631376762 202:0.355138492164 209:-0.181853915169 211:0.334631376762 217:0.142732947631 218:0.138906390363 220:-0.0834577710358 223:0.334631376762 225:-0.0612023654262 230:0.350142848957 231:0.315035995884 299:0.296274718348 321:0.260990013025 323:0.839432589606 330:0.216808417688 333:-0.185587978468 352:0.987757453464 357:0.117536176461 360:0.082251471138 361:0.0 371:0.372315267863 377:0.0937020755715 382:0.129954560613 385:0.839432589606 419:0.071090786797 437:0.153582662542 441:0.78056881579 474:0.907385829459 506:-0.11846401583 507:0.907385829459 515:0.806238606619 516:0.992056696807 517:0.711253960068 518:0.78056881579 519:0.533877034051 520:1.21294138501 521:1.21294138501 522:1.08612437135 523:1.21294138501 524:0.839432589606 525:0.169457704679 526:1.21294138501 527:0.728647287572 528:0.212852400613 529:0.640186932318 530:1.21294138501 531:1.21294138501 532:0.839432589606 533:1.21294138501 534:1.21294138501 535:1.21294138501 536:0.728647287572 537:0.987757453464 538:1.21294138501 539:1.21294138501 540:1.21294138501 541:1.21294138501 542:1.21294138501 543:0.987757453464 544:1.21294138501 545:0.601830273903 546:0.728647287572 547:1.21294138501 548:1.21294138501 549:0.475013260235 550:0.987757453464 551:1.21294138501 552:0.27827942447 553:1.21294138501 554:1.21294138501 555:0.839432589606 556:0.839432589606 557:0.839432589606 558:1.08612437135 559:1.21294138501 560:0.682201897908 561:1.21294138501 562:0.355138492164 563:0.355138492164 564:1.08612437135 565:1.21294138501 566:1.21294138501 567:1.21294138501 568:0.315035995884 570:0.907385829459 571:0.533877034051 572:1.21294138501 573:0.839432589606 574:0.78056881579 575:1.08612437135 775:1.08612437135 776:0.682201897908 
0.023811513333307607 0.023112984839517514 0:-0.565234310888 2:-0.301614255653 3:-0.370147768405 4:-0.255779747737 5:-0.273368738024 6:-0.0200403308125 7:-0.0343689763357 9:-0.349053571292 10:-0.296118214724 11:-0.0842553567933 13:0.127775557598 14:0.404010979565 15:-0.026036306945 16:-0.198386089276 17:-0.191564721756 18:0.319420859637 19:-0.375 20:-0.0505550508416 21:-0.218514303146 22:0.540793497281 23:0.48057865802 24:-0.14285986974 26:0.319420859637 35:0.136245086375 39:-0.140897023941 41:-0.133202486236 42:0.0277541929701 43:0.365052411013 44:0.217943229473 46:0.574474352362 48:0.461554616745 49:-0.0101245496812 50:0.574474352362 51:0.343675631874 54:0.319420859637 57:0.0785127679045 58:0.319420859637 59:0.453421748406 63:0.359526054064 66:0.319420859637 89:-0.234197586274 98:-0.173587828116 99:0.65119272073 100:0.0574690803924 105:-0.0505550508416 106:-0.0811711723921 108:0.509609896139 109:0.403860289652 110:-0.229034502435 114:0.0374278616179 117:0.249126830615 122:-0.136435530394 123:0.319420859637 124:0.319420859637 126:0.265630359722 129:0.540793497281 131:0.403860289652 132:-0.244337499904 134:0.319420859637 136:0.282807685696 137:0.574474352362 138:0.282807685696 139:0.282807685696 140:0.136245086375 142:0.300716177889 144:-0.268667168959 146:0.65119272073 148:-0.268667168959 149:-0.0343689763357 151:-0.017535289461 152:0.343675631874 154:-0.205112049922 156:0.453421748406 157:-0.173587828116 158:0.319420859637 160:0.319420859637 162:0.233246226942 164:0.403860289652 169:-0.179473043681 171:-0.173587828116 181:0.188911991353 183:-0.136435530394 186:0.112193622985 189:-0.218514303146 190:-0.0113901183913 191:0.359526054064 197:0.65119272073 198:0.319420859637 202:0.338995833429 209:-0.173587828116 210:0.574474352362 211:0.319420859637 217:0.136245086375 218:0.112193622985 220:-0.058420439725 223:0.319420859637 225:-0.058420439725 228:0.403860289652 230:0.282807685696 231:0.300716177889 262:0.540793497281 325:0.851529617226 328:0.989875450319 329:0.915744643207 331:1.03675508174 332:1.03675508174 339:0.745088415073 343:0.801276562806 346:0.745088415073 351:0.942859387397 424:1.91594163876 426:0.540793497281 441:0.745088415073 596:0.574474352362 738:1.32842174841 
-0.0 0.005575827491632375 0:-0.726729828285 2:-0.241291404523 3:-0.370147768405 4:-0.24299076035 5:-0.437389980838 6:-0.0170342811906 7:-0.0333870055833 9:-0.321129285589 10:-0.355341857668 15:-0.0238046234926 17:-0.201142957844 19:-0.316666666667 21:-0.22475756895 23:0.46684783922 24:-0.146941580304 39:-0.112717619153 41:-0.106561988989 42:0.0253752621441 44:0.199262381232 46:0.525233693588 57:0.0807559898446 63:0.328709535144 67:0.172719534952 98:-0.168628175884 110:-0.287929088776 111:0.681223693781 114:0.0342197591935 122:-0.12474105636 140:0.124566936114 144:-0.245638554477 148:-0.245638554477 151:-0.01603226465 152:0.274940505499 154:-0.164089639937 157:-0.168628175884 169:-0.184600844929 170:0.213253693204 171:-0.168628175884 180:0.292041928811 183:-0.132537372383 190:-0.00809963974494 196:0.199262381232 209:-0.168628175884 217:0.124566936114 219:0.635910360063 220:-0.0534129734629 222:0.635910360063 228:0.369243693396 230:0.258567026922 237:0.525233693588 262:0.494439768943 321:0.256244740061 324:0.0432723810397 329:0.778382946726 330:0.160104677678 333:-0.163317421052 342:-0.0634279059872 353:-0.153182859172 354:0.391233602781 357:0.1089880909 361:0.0 370:0.369798227037 371:0.292124287093 377:0.0817763568624 378:0.494439768943 387:0.309939047706 395:0.681223693781 406:0.0432723810397 409:0.940381677803 413:0.732595714565 421:0.595376201811 423:0.0253752621441 437:0.113414889262 446:0.681223693781 456:0.841394132771 470:0.947890360447 486:0.595376201811 489:0.414557027114 500:0.595376201811 506:-0.0874811193825 515:0.595376201811 517:0.525233693588 536:0.635910360063 545:0.525233693588 549:0.414557027114 552:0.242862043174 556:0.732595714565 574:0.681223693781 578:0.681223693781 618:1.05856702692 626:0.369243693396 659:0.915920547757 677:0.947890360447 692:0.869957411046 701:0.70700923965 716:0.439386201618 725:0.439386201618 747:0.558708595477 762:0.862042868477 768:0.947890360447 774:0.791900360255 777:1.59410609809 778:1.25704834447 779:1.4422864697 780:0.940381677803 781:1.25704834447 782:0.940381677803 783:1.3663766555 784:1.19088790529 785:0.890887905287 786:0.0591110541179 787:0.841394132771 788:1.1247274661 789:0.841394132771 790:1.00713350798 791:1.29046684131 792:1.1247274661 793:0.593627882695 794:1.1247274661 795:1.29046684131 796:0.349253881091 797:1.1247274661 798:1.29046684131 799:1.29046684131 800:0.732595714565 801:1.21455702711 802:1.21455702711 803:1.21455702711 804:0.635910360063 805:0.199262381232 806:1.21455702711 807:0.558708595477 808:1.21455702711 809:1.05856702692 810:0.862042868477 811:1.21455702711 812:1.05856702692 813:0.862042868477 814:1.21455702711 815:0.862042868477 816:1.21455702711 817:1.21455702711 818:1.05856702692 819:1.21455702711 820:0.525233693588 821:1.21455702711 822:1.05856702692 823:1.21455702711 824:1.21455702711 825:1.21455702711 826:1.21455702711 827:1.21455702711 828:1.21455702711 829:0.595376201811 830:0.862042868477 831:0.172719534952 832:0.391233602781 833:0.947890360447 834:1.21455702711 835:0.862042868477 836:0.092036129613 837:1.21455702711 838:0.732595714565 839:0.0342197591935 840:1.21455702711 841:1.21455702711 842:0.227773102276 843:1.21455702711 844:0.465929047899 845:1.05856702692 846:1.21455702711 847:1.21455702711 848:1.21455702711 849:0.862042868477 850:0.732595714565 851:1.05856702692 852:1.05856702692 853:0.595376201811 854:1.21455702711 855:0.947890360447 856:1.21455702711 857:0.791900360255 858:0.732595714565 859:1.21455702711 860:0.862042868477 861:1.21455702711 862:1.05856702692 863:1.21455702711 864:1.21455702711 865:1.21455702711 866:1.05856702692 867:1.21455702711 868:1.05856702692 869:1.05856702692 870:1.21455702711 871:1.21455702711 872:0.124566936114 873:1.21455702711 874:1.05856702692 875:1.21455702711 876:1.05856702692 877:0.558708595477 878:0.947890360447 879:1.21455702711 880:1.21455702711 881:1.21455702711 882:1.21455702711 883:0.791900360255 884:1.21455702711 885:1.21455702711 886:1.21455702711 887:1.21455702711 888:0.525233693588 889:0.947890360447 890:0.862042868477 891:0.414557027114 892:1.05856702692 893:1.05856702692 894:0.681223693781 
-0.00442617892917907 0.007479732743472969 0:-0.726729828285 2:-0.250022343502 3:-0.338977430013 4:-0.292800500698 5:-0.35764030388 6:-0.0166123794893 7:-0.0356610431152 9:-0.319659586341 10:-0.432488445189 13:0.0928054049919 15:-0.0246659750005 17:-0.234414725306 19:-0.302631578947 20:-0.0524556166627 21:-0.207013550349 24:-0.135340929228 39:-0.116796217214 41:-0.110417850433 42:0.0262934459717 44:0.265464685523 56:0.0814643757204 60:0.129074292355 61:0.267923070659 64:0.220970109734 67:0.178969254966 98:-0.164451626636 105:-0.0524556166627 106:-0.0842227202264 119:0.705873235332 135:0.382604484933 141:0.382604484933 144:-0.278767438469 148:-0.254526791646 151:-0.0197766422492 154:-0.170027094014 157:-0.164451626636 169:-0.170027094014 171:-0.164451626636 181:0.178969254966 183:-0.129254713005 209:-0.164451626636 218:0.10628869546 220:-0.0606166968576 222:0.658920274407 225:-0.0553456797395 229:0.982189024806 237:0.544238860133 299:0.267923070659 318:0.210815535535 324:0.0448381579852 333:-0.146516825106 342:-0.0553456797395 344:0.45528504444 353:-0.141965807699 360:0.0814643757204 361:0.0 368:0.24201488209 370:0.340603630166 377:0.0847353697752 423:0.0287975836833 437:0.117518717492 446:0.705873235332 448:0.544238860133 468:0.482788322658 477:0.340603630166 497:0.482788322658 506:-0.0906465546233 512:0.395436983939 515:0.616919419639 519:0.482788322658 528:0.210815535535 545:0.544238860133 552:0.251649814473 560:0.616919419639 576:0.405390081829 596:0.544238860133 679:0.820554649606 719:0.361051159249 747:0.578925024919 772:1.09687043908 786:0.069999932508 793:0.634060741578 796:0.340603630166 804:0.658920274407 807:0.578925024919 831:0.178969254966 832:0.405390081829 839:0.0354579741643 850:0.831399741859 872:0.129074292355 891:0.429557445858 895:0.620727843418 896:0.64790340492 897:0.976850773341 898:1.498220017 899:1.37836241564 900:1.68099399459 901:1.37836241564 902:1.07573083669 903:1.37836241564 904:0.721674586255 905:1.20133429042 906:1.37836241564 907:1.37836241564 908:0.773099257745 909:1.37836241564 910:0.634060741578 911:0.898702711474 912:1.20133429042 913:0.978305229029 914:1.07573083669 915:1.25850481428 916:1.25850481428 917:1.25850481428 918:1.09687043908 919:1.25850481428 920:1.25850481428 921:1.25850481428 922:1.25850481428 923:1.25850481428 924:1.25850481428 925:1.09687043908 926:1.25850481428 927:1.25850481428 928:0.382604484933 929:1.25850481428 930:1.09687043908 931:0.759104112132 932:0.982189024806 933:1.25850481428 934:1.25850481428 935:1.09687043908 936:1.09687043908 937:1.25850481428 938:1.09687043908 939:1.25850481428 940:0.820554649606 941:1.25850481428 942:0.982189024806 943:1.25850481428 944:1.25850481428 945:0.578925024919 946:1.25850481428 947:1.09687043908 948:1.25850481428 949:1.25850481428 950:1.09687043908 951:1.25850481428 952:1.25850481428 953:0.705873235332 954:0.578925024919 955:1.25850481428 956:0.482788322658 957:1.25850481428 958:1.25850481428 959:0.820554649606 960:0.578925024919 961:1.25850481428 962:1.25850481428 963:1.25850481428 964:1.09687043908 965:1.25850481428 966:1.25850481428 967:1.09687043908 968:0.236014892161 969:1.09687043908 970:1.25850481428 971:0.982189024806 972:0.820554649606 973:1.09687043908 974:0.429557445858 975:0.893235209113 976:1.25850481428 977:1.25850481428 978:1.25850481428 979:1.25850481428 980:1.09687043908 981:0.705873235332 982:1.25850481428 983:0.820554649606 
-0.0018249736503938335 0.001703361400685788 0:-0.726729828285 3:-0.460040797874 4:-0.205537297288 5:-0.334737230233 9:-0.329107652933 10:-0.523494701029 16:-0.201928698013 17:-0.194985520359 19:-0.339285714286 20:-0.0464281079158 21:-0.227433254294 24:-0.157437407469 34:1.06329277258 39:-0.120768877664 41:-0.114173559631 42:0.0271877808687 49:-0.00922057203107 52:0.79543562972 56:0.0721035623613 57:0.0721035623613 65:0.441347747161 80:0.370892102742 89:-0.229418043697 98:-0.159417393168 105:-0.0526185223045 110:-0.252405370031 114:0.0343725259756 126:0.243946248724 132:-0.224391581545 140:0.125123038507 144:-0.246735155167 148:-0.246735155167 149:-0.0315633456144 154:-0.164822182973 155:0.784923979891 157:-0.159417393168 162:0.21420571862 169:-0.164822182973 170:0.21420571862 171:-0.159417393168 181:0.173490604304 183:-0.133651131815 184:0.562750385988 186:0.103034959884 189:-0.200676400848 190:-0.00813579885094 209:-0.159417393168 216:0.637903073369 220:-0.0572281858531 233:0.848464671702 313:0.49664708934 318:0.186591390147 320:0.527578486863 321:0.244042609582 330:0.171540726083 333:-0.143167869104 336:0.416407728128 342:-0.0536514242373 348:0.562750385988 353:-0.114173559631 357:0.10990395721 361:0.0 368:0.21420571862 370:0.330176988426 378:0.562866701252 382:0.113921205732 387:0.311322704169 390:0.392980181364 410:0.527578486863 417:0.79543562972 419:0.0623198455688 421:0.598034131283 423:0.0271877808687 437:0.136705446878 454:1.06329277258 459:1.27595132709 502:0.332077551114 506:-0.087871660094 516:0.735866231148 518:0.684264870985 525:0.158453957622 549:0.471928758545 552:0.243946248724 560:0.598034131283 563:0.311322704169 571:0.468009088291 602:0.735866231148 607:0.952122013842 627:1.2199791567 632:0.86589127414 633:0.598034131283 655:0.952122013842 663:0.86589127414 668:1.06329277258 673:0.952122013842 690:1.06329277258 692:0.735866231148 697:0.0821414298841 707:1.06329277258 716:0.441347747161 719:0.349998572741 724:1.06329277258 726:1.13417895742 773:0.883039477378 786:0.052777726891 787:0.79543562972 790:1.01559681477 838:0.735866231148 853:0.598034131283 872:0.125123038507 874:1.06329277258 877:0.561202830279 910:0.598616352297 914:0.952122013842 935:1.06329277258 942:0.952122013842 954:0.561202830279 959:0.79543562972 960:0.598616352297 984:1.78930276316 985:1.46397498804 986:1.20506514225 987:1.38264304426 988:0.923617359083 989:1.30131110048 990:1.13417895742 991:1.30131110048 992:1.30131110048 993:0.923617359083 994:1.30131110048 995:1.01559681477 996:1.30131110048 997:1.13417895742 998:0.923617359083 999:1.30131110048 1000:1.13417895742 1001:0.923617359083 1002:0.735866231148 1003:1.2199791567 1004:1.2199791567 1005:1.48783629956 1006:1.2199791567 1007:0.243946248724 1008:1.2199791567 1009:1.2199791567 1010:1.48783629956 1011:0.952122013842 1012:1.2199791567 1013:1.2199791567 1014:1.48783629956 1015:1.06329277258 1016:0.684264870985 1017:0.735866231148 1018:1.2199791567 1019:1.2199791567 1020:1.06329277258 1021:1.06329277258 1022:1.06329277258 1023:1.48783629956 1024:1.2199791567 1025:1.2199791567 1026:1.48783629956 1027:1.2199791567 1028:1.48783629956 1029:1.2199791567 1030:1.2199791567 1031:1.2199791567 1032:1.48783629956 1033:1.2199791567 1034:1.2199791567 1035:0.684264870985 1036:1.2199791567 1037:1.48783629956 1038:1.2199791567 1039:0.735866231148 1040:0.952122013842 1041:1.48783629956 1042:1.2199791567 1043:1.2199791567 1044:1.2199791567 1045:1.2199791567 1046:1.2199791567 1047:0.638749245599 1048:1.48783629956 1049:1.2199791567 1050:1.2199791567 1051:1.2199791567 1052:1.2199791567 1053:1.2199791567 1054:1.48783629956 1055:1.2199791567 1056:1.2199791567 1057:0.86589127414 1058:1.2199791567 1059:1.2199791567 1060:0.79543562972 1061:0.735866231148 1062:1.2199791567 1063:1.2199791567 1064:1.48783629956 1065:1.48783629956 1066:0.598034131283 1067:1.2199791567 1068:1.48783629956 1069:0.86589127414 1070:0.952122013842 1071:0.349998572741 1072:1.48783629956 1073:1.48783629956 1074:1.48783629956 1075:1.2199791567 1076:1.2199791567 1077:1.06329277258 1078:1.2199791567 1079:1.2199791567 1080:0.79543562972 1081:1.2199791567 1082:1.2199791567 1083:1.2199791567 1084:0.638749245599 1085:0.952122013842 1086:1.48783629956 1087:1.2199791567 1088:0.86589127414 1089:1.48783629956 1090:1.48783629956 1091:1.2199791567 1092:0.561202830279 1093:1.2199791567 1094:1.06329277258 1095:1.06329277258 1096:1.2199791567 1097:1.2199791567 1098:1.48783629956 1099:1.06329277258 1100:1.2199791567 1101:1.2199791567 1102:0.79543562972 
-0.001131173667597205 4.2259061945211447E-4 0:-0.726729828285 2:-0.282763364675 3:-0.388655156825 5:-0.410053107035 9:-0.261790178469 10:-0.333132991564 16:-0.297579133914 17:-0.215510311975 19:-0.375 21:-0.234122467656 35:0.17517225391 39:-0.132090959944 41:-0.124877330847 44:0.233510603006 60:0.17517225391 61:0.303008234674 98:-0.185986958696 105:-0.0649993510821 110:-0.245394109752 144:-0.287857681028 148:-0.287857681028 157:-0.185986958696 169:-0.192292546801 171:-0.185986958696 184:0.738609881609 185:0.514905705022 209:-0.185986958696 222:0.745207453199 237:0.615508234674 321:0.26692160423 324:0.0709937501433 330:0.225147202984 333:-0.167029180621 377:0.0958316681981 391:0.615508234674 423:0.0297366353251 502:0.363209821531 506:-0.102516936776 515:0.697706486497 525:0.173309016149 558:1.11080901615 562:0.363209821531 563:0.363209821531 574:0.798309016149 591:0.928008234674 594:0.41068396239 651:1.11080901615 664:1.24050823467 711:0.861711528543 785:0.928008234674 804:0.745207453199 831:0.242886846026 872:0.145976878259 968:0.26692160423 981:0.798309016149 1080:0.928008234674 1103:1.03021272361 1104:1.48860988161 1105:0.78568396239 1106:1.73580901615 1107:0.57942160423 1108:1.42330901615 1109:1.73580901615 1110:0.928008234674 1111:1.0102064865 1112:1.42330901615 1113:1.24050823467 1114:0.072706486497 1115:0.928008234674 1116:0.858510603006 1117:0.928008234674 1118:1.73580901615 1119:1.73580901615 1120:1.73580901615 1121:1.42330901615 1122:1.0102064865 1123:1.42330901615 1124:1.73580901615 1125:1.73580901615 1126:1.73580901615 1127:0.858510603006 1128:1.73580901615 1129:1.11080901615 1130:1.42330901615 1131:1.0102064865 1132:1.0102064865 1133:1.24050823467 1134:0.798309016149 1135:1.0102064865 1136:0.858510603006 1137:1.0102064865 1138:1.24050823467 1139:1.73580901615 
-0.004431519888020949 0.0 0:-0.726729828285 2:-0.241291404523 3:-0.370147768405 4:-0.24299076035 5:-0.437389980838 6:-0.0170342811906 7:-0.0333870055833 9:-0.321129285589 10:-0.355341857668 15:-0.0238046234926 17:-0.201142957844 19:-0.3 21:-0.22475756895 23:0.46684783922 24:-0.146941580304 39:-0.112717619153 41:-0.106561988989 42:0.0253752621441 44:0.199262381232 46:0.525233693588 57:0.0807559898446 63:0.328709535144 67:0.172719534952 98:-0.158708871421 110:-0.287929088776 111:0.681223693781 114:0.0342197591935 122:-0.12474105636 140:0.124566936114 144:-0.245638554477 148:-0.245638554477 151:-0.01603226465 152:0.274940505499 154:-0.164089639937 157:-0.158708871421 169:-0.174345242433 170:0.213253693204 171:-0.158708871421 180:0.292041928811 183:-0.132537372383 190:-0.00809963974494 196:0.199262381232 209:-0.158708871421 217:0.124566936114 219:0.635910360063 220:-0.0534129734629 222:0.635910360063 228:0.369243693396 230:0.258567026922 237:0.525233693588 262:0.494439768943 321:0.256244740061 324:0.0432723810397 329:0.778382946726 330:0.160104677678 333:-0.163317421052 342:-0.0634279059872 353:-0.153182859172 354:0.391233602781 357:0.1089880909 361:0.0 370:0.369798227037 371:0.292124287093 377:0.0817763568624 378:0.494439768943 387:0.309939047706 395:0.681223693781 406:0.0432723810397 409:0.940381677803 413:0.732595714565 421:0.595376201811 423:0.0253752621441 437:0.113414889262 446:0.681223693781 456:0.841394132771 470:0.947890360447 486:0.595376201811 489:0.414557027114 500:0.595376201811 506:-0.0874811193825 515:0.595376201811 517:0.525233693588 536:0.635910360063 545:0.525233693588 549:0.414557027114 552:0.242862043174 556:0.732595714565 574:0.681223693781 578:0.681223693781 618:1.05856702692 626:0.369243693396 659:0.915920547757 677:0.947890360447 692:0.869957411046 701:0.70700923965 716:0.439386201618 725:0.439386201618 747:0.558708595477 762:0.862042868477 768:0.947890360447 774:0.791900360255 777:1.59410609809 778:1.25704834447 779:1.4422864697 780:0.940381677803 781:1.25704834447 782:0.940381677803 783:1.3663766555 784:1.19088790529 785:0.890887905287 786:0.0591110541179 787:0.841394132771 788:1.1247274661 789:0.841394132771 790:1.00713350798 791:1.29046684131 792:1.1247274661 793:0.593627882695 794:1.1247274661 795:1.29046684131 796:0.349253881091 797:1.1247274661 798:1.29046684131 799:1.29046684131 800:0.732595714565 801:1.21455702711 802:1.21455702711 803:1.21455702711 804:0.635910360063 805:0.199262381232 806:1.21455702711 807:0.558708595477 808:1.21455702711 809:1.05856702692 810:0.862042868477 811:1.21455702711 812:1.05856702692 813:0.862042868477 814:1.21455702711 815:0.862042868477 816:1.21455702711 817:1.21455702711 818:1.05856702692 819:1.21455702711 820:0.525233693588 821:1.21455702711 822:1.05856702692 823:1.21455702711 824:1.21455702711 825:1.21455702711 826:1.21455702711 827:1.21455702711 828:1.21455702711 829:0.595376201811 830:0.862042868477 831:0.172719534952 832:0.391233602781 833:0.947890360447 834:1.21455702711 835:0.862042868477 836:0.092036129613 837:1.21455702711 838:0.732595714565 839:0.0342197591935 840:1.21455702711 841:1.21455702711 842:0.227773102276 843:1.21455702711 844:0.465929047899 845:1.05856702692 846:1.21455702711 847:1.21455702711 848:1.21455702711 849:0.862042868477 850:0.732595714565 851:1.05856702692 852:1.05856702692 853:0.595376201811 854:1.21455702711 855:0.947890360447 856:1.21455702711 857:0.791900360255 858:0.732595714565 859:1.21455702711 860:0.862042868477 861:1.21455702711 862:1.05856702692 863:1.21455702711 864:1.21455702711 865:1.21455702711 866:1.05856702692 867:1.21455702711 868:1.05856702692 869:1.05856702692 870:1.21455702711 871:1.21455702711 872:0.124566936114 873:1.21455702711 874:1.05856702692 875:1.21455702711 876:1.05856702692 877:0.558708595477 878:0.947890360447 879:1.21455702711 880:1.21455702711 881:1.21455702711 882:1.21455702711 883:0.791900360255 884:1.21455702711 885:1.21455702711 886:1.21455702711 887:1.21455702711 888:0.525233693588 889:0.947890360447 890:0.862042868477 891:0.414557027114 892:1.05856702692 893:1.05856702692 894:0.681223693781 
-0.001164472289369795 0.002914940734028707 0:-0.726729828285 2:-0.301614255653 3:-0.296118214724 4:-0.319724684671 5:-0.702948183489 9:-0.558485714067 10:-0.518206875766 11:-0.0842553567933 15:-0.0297557793657 16:-0.198386089276 19:-0.416666666667 20:-0.0577772009619 29:0.365052411013 39:-0.211345535911 41:-0.166503107796 42:0.0317190776801 64:0.333208895631 67:0.269874273362 89:-0.334567980392 98:-0.198386089276 100:0.0656789490199 106:-0.0927670541624 110:-0.458069004871 114:0.0427746989918 132:-0.279242857034 140:0.155708670142 144:-0.307048193096 148:-0.307048193096 149:-0.039278830098 151:-0.0250504135157 154:-0.256390062402 157:-0.198386089276 166:0.429594539842 168:0.582411309873 169:-0.205112049922 171:-0.198386089276 180:0.365052411013 183:-0.15592632045 189:-0.249730632166 190:-0.0101245496812 209:-0.198386089276 218:0.128221283412 220:-0.0667662168286 225:-0.0667662168286 299:0.404010979565 326:1.0775535856 353:-0.233104350914 360:0.112161097006 361:0.0 371:0.429594539842 382:0.141768611578 416:0.576943270931 419:0.0775535855968 474:0.989875450319 505:0.989875450319 522:1.18486295056 552:0.303577553968 563:0.387423809633 568:0.343675631874 576:0.489042003476 594:0.365052411013 599:0.794887950078 603:0.576943270931 626:0.461554616745 635:0.794887950078 666:1.18486295056 711:0.656542116985 729:1.14468080401 737:0.872982180433 786:0.0656789490199 793:0.698385744347 805:0.311347470675 831:0.21589941869 842:0.284716377846 872:0.155708670142 894:0.851529617226 896:0.656542116985 905:1.65401097957 911:0.989875450319 928:0.692331925118 931:0.915744643207 945:0.698385744347 954:0.698385744347 964:1.32320878365 973:1.32320878365 997:1.32320878365 1007:0.303577553968 1057:1.0775535856 1061:0.915744643207 1071:0.435553779411 1084:0.993609937598 1107:0.618049711179 1140:1.77729442584 1141:1.346941982 1142:1.346941982 1143:1.4810786882 1144:1.89774535487 1145:0.772562138974 1146:1.18486295056 1147:1.0775535856 1148:0.461554616745 1149:1.18486295056 1150:0.343675631874 1151:0.435553779411 1152:1.32320878365 1153:1.32320878365 1154:1.0775535856 1155:0.323208783652 1156:1.0775535856 1157:1.0775535856 1158:1.32320878365 1159:1.85152961723 1160:1.85152961723 1161:1.85152961723 1162:0.915744643207 1163:1.85152961723 1164:1.85152961723 1165:1.32320878365 1166:1.18486295056 1167:1.85152961723 1168:0.343675631874 1169:1.32320878365 1170:1.32320878365 1171:1.32320878365 1172:1.32320878365 1173:1.32320878365 1174:1.32320878365 1175:0.343675631874 1176:1.85152961723 1177:1.32320878365 1178:1.85152961723 1179:0.744220252263 1180:1.51819628389 1181:1.32320878365 1182:1.51819628389 1183:1.85152961723 1184:0.303577553968 1185:1.85152961723 1186:1.85152961723 1187:1.51819628389 1188:0.794887950078 1189:1.32320878365 1190:1.18486295056 
-0.0016151169261555468 0.0018853651084062718 0:-0.506508668198 2:-0.3084691251 3:-0.383607687256 5:-0.702948183489 7:-0.040171530782 8:0.364195223597 9:-0.323667857016 10:-0.383607687256 11:-0.0746808844304 16:-0.392263403795 19:-0.340909090909 20:-0.0512116099435 21:-0.255406328352 39:-0.14409922903 41:-0.136229815469 44:0.220773661024 56:0.0795324142409 60:0.180480504029 61:0.330554437826 65:0.486819939293 89:-0.273737438502 98:-0.175842215494 100:0.0582154320858 110:-0.303396353875 114:0.0379139377428 132:-0.247510714189 142:0.304621582797 144:-0.272156352972 148:-0.272156352972 149:-0.0455277348863 154:-0.18180386243 155:0.811682751933 157:-0.175842215494 169:-0.18180386243 171:-0.175842215494 183:-0.180732780522 186:0.113650683024 189:-0.221352151238 209:-0.175842215494 217:0.138014503081 225:-0.0591791467345 227:0.619023727944 320:0.581935058237 321:0.252362243999 323:0.811682751933 333:-0.172090670943 353:-0.118065840073 361:0.0 377:0.0906044862964 378:0.547816789454 390:0.566844140392 398:1.17284414915 422:0.877389603692 440:1.3456739789 458:0.811682751933 462:1.3456739789 472:0.877389603692 478:1.01237261964 493:0.955104314506 502:0.34339837672 503:0.811682751933 506:-0.0969251038612 552:0.269080104653 564:1.05021943345 598:1.3456739789 603:0.409105228479 607:1.21179165398 701:0.659649769052 711:0.581935058237 717:1.05021943345 773:0.811682751933 780:0.877389603692 782:0.877389603692 790:1.21179165398 805:0.220773661024 807:0.714258147627 813:1.10204343981 831:0.191365393839 842:0.252362243999 852:1.17284414915 868:1.17284414915 872:0.201713504503 876:1.17284414915 959:0.877389603692 981:0.870882563072 1007:0.269080104653 1069:0.955104314506 1077:1.17284414915 1104:1.17284414915 1105:0.619023727944 1107:0.547816789454 1110:1.1473556356 1113:1.17284414915 1127:0.811682751933 1131:0.955104314506 1133:1.17284414915 1134:0.754764887996 1136:0.811682751933 1137:0.955104314506 1148:0.409105228479 1150:0.304621582797 1151:0.386059031751 1155:0.286480512783 1168:0.304621582797 1175:0.304621582797 1184:0.269080104653 1191:1.28233865155 1192:2.14609114724 1193:2.14609114724 1194:1.8936098358 1195:1.8936098358 1196:1.8936098358 1197:1.8936098358 1198:1.35328171055 1199:1.8936098358 1200:1.3456739789 1201:1.64112852436 1202:1.3456739789 1203:1.3456739789 1204:1.64112852436 1205:1.64112852436 1206:0.811682751933 1207:1.64112852436 1208:1.64112852436 1209:1.64112852436 1210:1.17284414915 1211:1.64112852436 1212:1.64112852436 1213:1.17284414915 1214:1.17284414915 1215:1.64112852436 1216:1.64112852436 1217:1.64112852436 1218:0.754764887996 1219:1.3456739789 1220:1.64112852436 1221:1.3456739789 1222:0.955104314506 1223:1.64112852436 1224:1.64112852436 1225:1.64112852436 1226:1.64112852436 1227:1.17284414915 1228:1.17284414915 1229:1.3456739789 1230:1.64112852436 1231:1.64112852436 1232:1.17284414915 1233:1.64112852436 1234:1.64112852436 1235:1.17284414915 1236:0.659649769052 1237:0.754764887996 1238:1.3456739789 1239:1.64112852436 1240:1.64112852436 1241:1.17284414915 1242:0.811682751933 1243:1.64112852436 
-0.008876070468731635 0.013172554180833948 0:-0.726729828285 2:-0.301614255653 3:-0.296118214724 5:-0.390526768605 9:-0.279242857034 10:-0.296118214724 11:-0.105319195992 19:-0.333333333333 20:-0.0577772009619 21:-0.249730632166 24:-0.16326842256 35:0.194635837678 39:-0.140897023941 41:-0.133202486236 56:0.112161097006 57:0.0897288776051 67:0.21589941869 89:-0.334567980392 105:-0.0722215012023 110:-0.327192146336 132:-0.279242857034 144:-0.307048193096 148:-0.307048193096 154:-0.205112049922 217:0.155708670142 225:-0.0667662168286 324:0.0811357144494 330:0.200130847097 370:0.41088691893 377:0.102220446078 437:0.141768611578 506:-0.109351399228 532:0.915744643207 562:0.387423809633 594:0.456315513767 595:0.851529617226 711:0.820677646232 737:0.698385744347 786:0.0656789490199 805:0.311347470675 831:0.21589941869 842:0.284716377846 872:0.155708670142 913:1.0775535856 968:0.284716377846 1007:0.303577553968 1080:0.989875450319 1105:0.698385744347 1107:0.618049711179 1111:1.0775535856 1116:0.915744643207 1117:0.989875450319 1122:1.0775535856 1127:0.915744643207 1129:1.18486295056 1132:1.0775535856 1134:0.851529617226 1135:1.0775535856 1150:0.343675631874 1155:0.323208783652 1168:0.343675631874 1175:0.343675631874 1184:0.303577553968 1244:1.06441202153 1245:1.18486295056 1246:1.85152961723 1247:0.698385744347 1248:1.85152961723 1249:1.85152961723 1250:0.989875450319 
-0.005727299622870597 0.007635189857386304 0:-0.726729828285 3:-0.343227930702 5:-0.319521901586 6:-0.0177630204929 7:-0.0348153266777 9:-0.323667857016 10:-0.383607687256 11:-0.0746808844304 15:-0.0263744408014 16:-0.22994751257 17:-0.169796003374 19:-0.295454545455 21:-0.289460505466 35:0.138014503081 39:-0.124885998493 41:-0.118065840073 47:1.89459439477 49:-0.00897403267195 57:0.091768170278 60:0.138014503081 98:-0.175842215494 106:-0.0948753963024 110:-0.232008976493 113:1.35328171055 122:-0.138207420399 140:0.138014503081 154:-0.20977368742 157:-0.175842215494 168:0.516228206479 169:-0.18180386243 170:0.23627539872 171:-0.175842215494 190:-0.00897403267195 196:0.220773661024 200:1.35328171055 209:-0.175842215494 212:1.53371927196 220:-0.0591791467345 318:0.300807938056 321:0.252362243999 333:-0.172090670943 342:-0.0591791467345 353:-0.136229815469 357:0.148620123955 362:1.05021943345 377:0.0906044862964 382:0.12565854208 411:0.433469048535 416:0.409105228479 419:0.0687406781426 423:0.0281146370346 506:-0.156571321622 524:0.811682751933 525:0.163855797087 528:0.205815957617 571:0.516228206479 676:0.955104314506 725:0.561715314569 763:1.05021943345 782:0.877389603692 786:0.0582154320858 805:0.220773661024 829:0.659649769052 872:0.159247503555 877:0.619023727944 888:0.581935058237 891:0.459310342541 975:0.955104314506 1001:1.10204343981 1017:0.811682751933 1105:0.714258147627 1115:1.1473556356 1117:1.28233865155 1131:1.39592169043 1137:0.955104314506 1155:0.286480512783 1251:1.8936098358 1252:1.8936098358 1253:1.17284414915 1254:0.955104314506 1255:1.64112852436 1256:1.17284414915 1257:1.64112852436 1258:1.64112852436 1259:1.64112852436 1260:1.64112852436 1261:1.64112852436 1262:1.3456739789 1263:1.64112852436 1264:1.64112852436 1265:1.05021943345 1266:1.64112852436 1267:1.64112852436 1268:0.811682751933 1269:1.3456739789 1270:1.3456739789 1271:1.3456739789 1272:1.3456739789 1273:1.64112852436 1274:1.64112852436 1275:1.64112852436 1276:1.64112852436 1277:1.64112852436 1278:1.3456739789 1279:1.3456739789 1280:1.64112852436 1281:1.17284414915 1282:1.05021943345 1283:1.64112852436 
-0.004858774517291606 0.0038752172983775915 0:-0.657517463686 3:-0.285542564198 4:-0.246644756746 5:-0.636000737442 6:-0.0193246047121 9:-0.44878316309 10:-0.666265983128 15:-0.0286930729598 17:-0.225772707784 19:-0.321428571429 24:-0.157437407469 29:0.430240341552 39:-0.135864987371 42:0.0305862534773 44:0.240182334521 50:0.633094184236 64:0.314168387309 67:0.254452886313 98:-0.191300871802 105:-0.0557137294989 106:-0.0894539450851 110:-0.476765698947 140:0.150147646209 151:-0.0193246047121 154:-0.241739201693 157:-0.191300871802 166:0.331401502164 168:0.561610905949 169:-0.241739201693 171:-0.191300871802 183:-0.217183089199 190:-0.00976295862113 209:-0.191300871802 217:0.150147646209 218:0.123641951861 220:-0.0643817090847 225:-0.0643817090847 299:0.311665612807 313:0.595976507208 320:0.633094184236 321:0.27454793578 324:0.0521586735746 326:1.03906952897 333:-0.143167869104 342:-0.078688755548 344:0.529617296594 353:-0.185532034401 357:0.123641951861 360:0.124979508093 361:0.0 371:0.331401502164 382:0.136705446878 414:0.633094184236 416:0.44507052329 418:0.71764095754 419:0.0747838146826 423:0.0305862534773 477:0.484259583025 490:1.03906952897 505:0.954522755665 506:-0.105445992113 552:0.422840164455 568:0.331401502164 594:0.352014824906 603:0.44507052329 624:0.954522755665 635:0.766499094718 666:1.14254641661 729:1.07927047235 737:0.972751572483 793:0.673443396334 796:0.396212386111 805:0.240182334521 839:0.0412470311707 877:0.673443396334 910:0.673443396334 928:0.543975084021 940:0.954522755665 981:0.821117845182 1057:1.03906952897 1071:0.513331240021 1084:0.766499094718 1140:1.3964456203 1141:1.03906952897 1142:1.26997386874 1143:1.3964456203 1144:1.46397498804 1146:1.14254641661 1147:1.03906952897 1149:1.14254641661 1152:1.27595132709 1153:1.27595132709 1154:1.03906952897 1157:1.03906952897 1165:1.27595132709 1169:1.27595132709 1170:1.27595132709 1171:1.27595132709 1172:1.27595132709 1173:1.27595132709 1174:1.27595132709 1177:1.27595132709 1179:0.71764095754 1180:1.46397498804 1181:1.27595132709 1189:1.55949606645 1222:1.03906952897 1227:1.27595132709 1236:0.71764095754 1284:1.78930276316 1285:0.877116725882 1286:1.27595132709 1287:1.27595132709 1288:1.27595132709 1289:1.78540355947 1290:0.954522755665 1291:0.529617296594 1292:1.46397498804 1293:1.46397498804 1294:1.78540355947 1295:0.766499094718 1296:1.46397498804 1297:1.78540355947 1298:1.14254641661 1299:1.27595132709 1300:1.46397498804 1301:1.46397498804 1302:1.46397498804 1303:1.46397498804 1304:1.46397498804 1305:1.46397498804 
-0.010938883911128109 0.0076088898790086235 0:-0.726729828285 2:-0.26733990842 3:-0.383607687256 4:-0.226713867312 5:-0.404727742009 6:-0.0177630204929 9:-0.399824999844 10:-0.302848174149 13:0.146361093248 15:-0.0263744408014 16:-0.257000161107 17:-0.169796003374 19:-0.295454545455 20:-0.0590903191655 21:-0.255406328352 24:-0.166979068528 26:0.323569182489 39:-0.163312459568 41:-0.154393790865 49:-0.00897403267195 56:0.0795324142409 60:0.159247503555 62:0.22080622366 89:-0.310235763636 100:0.0582154320858 110:-0.267702665184 112:0.547816789454 114:0.0379139377428 132:-0.247510714189 136:0.286480512783 140:0.138014503081 144:-0.272156352972 148:-0.272156352972 149:-0.0669525513033 151:-0.0177630204929 152:0.304621582797 154:-0.20977368742 168:0.516228206479 170:0.23627539872 189:-0.221352151238 190:-0.00897403267195 205:0.486819939293 220:-0.0773881149604 225:-0.0591791467345 230:0.286480512783 313:0.547816789454 321:0.252362243999 330:0.177388705381 342:-0.0591791467345 353:-0.172557766261 361:0.0 377:0.0906044862964 423:0.0324399658092 502:0.34339837672 529:0.619023727944 557:0.936557021461 568:0.304621582797 571:0.516228206479 576:1.03365696189 577:1.21179165398 578:0.987000238148 579:1.17284414915 580:2.01965275664 581:1.24898256512 582:1.17284414915 587:0.870882563072 588:0.86261892876 590:0.955104314506 595:0.754764887996 596:0.581935058237 597:1.05021943345 599:0.704559773933 600:1.17284414915 601:1.05021943345 602:0.811682751933 603:0.409105228479 604:1.35328171055 605:1.35328171055 614:0.877389603692 626:0.409105228479 635:0.704559773933 786:0.0582154320858 805:0.254738839643 807:0.619023727944 831:0.191365393839 842:0.252362243999 872:0.138014503081 891:0.459310342541 904:0.704559773933 1007:0.269080104653 1136:0.811682751933 1148:0.409105228479 1150:0.304621582797 1151:0.386059031751 1155:0.286480512783 1168:0.304621582797 1175:0.304621582797 1184:0.269080104653 1306:1.17284414915 1307:1.1473556356 1308:1.55270074489 1309:1.55270074489 1310:1.17284414915 1311:1.3456739789 1312:1.3456739789 1313:1.17284414915 1314:1.17284414915 1315:1.05021943345 1316:1.17284414915 1317:1.3456739789 1318:0.877389603692 1319:1.3456739789 1320:1.3456739789 1321:1.3456739789 1322:1.3456739789 1323:1.3456739789 1324:0.955104314506 1325:1.3456739789 1326:1.17284414915 1327:1.17284414915 1328:1.17284414915 1329:1.3456739789 1330:1.17284414915 1331:1.17284414915 1332:1.3456739789 1333:0.955104314506 1334:1.17284414915 1335:1.3456739789 1336:1.05021943345 1337:0.877389603692 
-0.008019665967704327 0.009748627801394086 0:-0.726729828285 2:-0.316694968436 3:-0.488595054294 5:-0.328042485628 8:0.431431264877 9:-0.293204999885 11:-0.088468124633 16:-0.267821220522 17:-0.201142957844 19:-0.45 21:-0.262217163775 39:-0.147941875138 41:-0.139862610548 60:0.16349410365 61:0.339369222835 98:-0.208305393739 105:-0.0779992212985 110:-0.274841402922 132:-0.293204999885 144:-0.322400602751 148:-0.322400602751 154:-0.215367652418 157:-0.208305393739 169:-0.215367652418 171:-0.208305393739 209:-0.208305393739 222:0.834632347582 237:0.689369222835 320:0.689369222835 330:0.210137389452 357:0.134632347582 422:1.03936922283 423:0.0428207548682 515:1.00469734056 562:0.406795000115 576:0.51349410365 594:0.383305031564 711:0.88633185793 789:1.03936922283 804:0.834632347582 831:0.226694389624 872:0.16349410365 877:0.733305031564 1061:0.961531875367 1092:0.733305031564 1103:0.961531875367 1104:1.38936922283 1105:0.733305031564 1110:1.03936922283 1113:1.38936922283 1134:0.894106098087 1136:0.961531875367 1158:1.38936922283 1184:0.318756431666 1198:1.38936922283 1219:1.59410609809 1228:1.38936922283 1232:1.38936922283 1244:0.894106098087 1338:1.59410609809 1339:1.94410609809 1340:1.24410609809 1341:1.94410609809 1342:1.94410609809 1343:1.24410609809 1344:1.94410609809 
-0.004501663500423343 0.007049546797976781 0:-0.726729828285 2:-0.26733990842 3:-0.423987443809 4:-0.331351036841 5:-0.319521901586 9:-0.36174642843 10:-0.423987443809 17:-0.32653077572 19:-0.340909090909 20:-0.0590903191655 21:-0.289460505466 24:-0.166979068528 39:-0.14409922903 41:-0.136229815469 49:-0.00897403267195 56:0.0795324142409 60:0.159247503555 62:0.191365393839 64:0.23627539872 67:0.22080622366 89:-0.273737438502 98:-0.175842215494 100:0.0582154320858 110:-0.267702665184 114:0.0379139377428 122:-0.138207420399 132:-0.247510714189 141:0.409105228479 144:-0.272156352972 148:-0.272156352972 149:-0.0348153266777 151:-0.0204957928764 154:-0.18180386243 157:-0.175842215494 169:-0.18180386243 171:-0.175842215494 181:0.191365393839 183:-0.138207420399 189:-0.221352151238 209:-0.175842215494 218:0.131135403489 225:-0.0591791467345 306:0.877389603692 318:0.205815957617 324:0.0479438312656 333:-0.19233663223 342:-0.0591791467345 348:0.581935058237 353:-0.136229815469 357:0.148620123955 360:0.104003926315 375:0.459310342541 410:0.581935058237 414:0.581935058237 416:0.409105228479 419:0.0687406781426 468:0.516228206479 543:0.955104314506 549:0.459310342541 578:0.754764887996 587:0.754764887996 594:0.373349056718 626:0.472044494398 685:1.05021943345 711:0.581935058237 716:0.486819939293 729:1.06143129099 768:1.05021943345 796:0.364195223597 805:0.220773661024 830:0.955104314506 831:0.191365393839 839:0.0379139377428 842:0.252362243999 850:0.811682751933 872:0.138014503081 895:0.516228206479 896:0.671463528735 910:0.619023727944 928:0.472044494398 936:1.17284414915 938:1.17284414915 953:0.754764887996 974:0.459310342541 1007:0.269080104653 1016:0.754764887996 1103:0.811682751933 1114:0.0687406781426 1115:0.877389603692 1145:1.13777333194 1147:0.955104314506 1148:0.409105228479 1150:0.304621582797 1151:0.386059031751 1155:0.286480512783 1156:0.955104314506 1158:1.17284414915 1168:0.304621582797 1175:0.304621582797 1179:0.659649769052 1184:0.269080104653 1285:0.761134348906 1299:1.17284414915 1324:0.955104314506 1343:1.05021943345 1345:2.14609114724 1346:0.364195223597 1347:1.17284414915 1348:1.64112852436 1349:1.64112852436 1350:1.64112852436 1351:1.64112852436 1352:1.05021943345 1353:1.17284414915 1354:0.877389603692 1355:1.3456739789 1356:1.3456739789 1357:1.64112852436 1358:1.64112852436 1359:1.3456739789 1360:0.619023727944 1361:1.64112852436 1362:1.64112852436 1363:1.64112852436 1364:1.64112852436 1365:1.64112852436 1366:1.3456739789 1367:1.64112852436 1368:1.64112852436 1369:1.64112852436 1370:1.17284414915 1371:1.05021943345 1372:1.64112852436 1373:1.64112852436 1374:1.64112852436 1375:1.64112852436 
-0.01103157914930948 0.013837507797056689 0:-0.48448655219 2:-0.45242138348 5:-0.585790152908 6:-0.0225453721641 9:-0.314148214163 11:-0.0947872763925 15:-0.0334752517864 16:-0.297579133914 19:-0.5 20:-0.0866658014428 21:-0.280946961187 24:-0.18367697538 29:0.41068396239 39:-0.211345535911 41:-0.199803729355 48:0.519248943838 89:-0.40148157647 98:-0.223184350435 100:0.0738888176473 106:-0.104362935933 110:-0.588945863405 114:0.0481215363658 132:-0.523580356938 144:-0.460572289644 148:-0.345429217233 149:-0.0441886838602 154:-0.230751056162 157:-0.223184350435 169:-0.230751056162 171:-0.223184350435 181:0.323849128035 183:-0.175417110507 189:-0.37459594825 209:-0.223184350435 225:-0.0751119939322 237:0.738609881609 320:0.738609881609 353:-0.249754661693 410:0.738609881609 423:0.0356839623901 426:0.695305925076 441:0.957970819379 493:1.2122477838 512:0.489998001838 525:0.207970819379 552:0.341524748214 804:0.894248943838 805:0.37361696481 831:0.242886846026 842:0.320305925076 872:0.17517225391 959:1.11360988161 1007:0.341524748214 1056:1.70797081938 1060:1.11360988161 1103:1.03021272361 1105:0.78568396239 1148:0.519248943838 1150:0.386635085858 1151:0.489998001838 1155:0.363609881609 1168:0.386635085858 1175:0.386635085858 1184:0.341524748214 1191:1.11360988161 1340:1.33297081938 1360:1.04757861652 1376:1.2122477838 1377:1.70797081938 1378:1.70797081938 1379:2.08297081938 1380:1.48860988161 1381:1.11360988161 1382:1.70797081938 1383:1.70797081938 
-0.0036037315952112815 0.0021105752000343554 0:-0.726729828285 2:-0.290842317951 3:-0.412450370508 5:-0.435158399303 9:-0.329107652933 11:-0.0993009562207 19:-0.321428571429 21:-0.240811681018 24:-0.157437407469 35:0.183513789811 39:-0.135864987371 41:-0.128445254585 42:0.0305862534773 56:0.105751891463 57:0.0865242748335 60:0.216879933413 67:0.208188725165 89:-0.315449810084 105:-0.0680945582765 110:-0.30849545226 132:-0.269269897854 144:-0.2960821862 148:-0.2960821862 154:-0.197786619567 183:-0.150357523291 225:-0.0643817090847 299:0.311665612807 324:0.0753403062745 330:0.192983316843 357:0.123641951861 377:0.0985697158609 506:-0.105445992113 532:0.883039477378 562:0.373587245003 563:0.373587245003 594:0.430240341552 595:0.821117845182 602:0.883039477378 711:1.05515697373 719:0.41999828729 780:0.954522755665 786:0.0774073327734 805:0.293556186636 831:0.254452886313 842:0.27454793578 872:0.183513789811 968:0.27454793578 1007:0.292735498469 1080:0.954522755665 1105:0.673443396334 1107:0.595976507208 1111:1.03906952897 1112:1.46397498804 1115:0.954522755665 1116:0.883039477378 1117:0.954522755665 1122:1.03906952897 1127:0.883039477378 1129:1.14254641661 1132:1.03906952897 1134:0.821117845182 1135:1.03906952897 1137:1.03906952897 1150:0.331401502164 1155:0.311665612807 1168:0.331401502164 1175:0.331401502164 1184:0.292735498469 1244:1.00358847744 1245:1.14254641661 1384:1.78540355947 1385:1.27595132709 1386:1.78540355947 1387:0.123641951861 1388:1.78540355947 1389:1.78540355947 1390:1.14254641661 1391:1.27595132709 
-0.002480515857232076 0.0036112006749028794 0:-0.726729828285 3:-0.460040797874 4:-0.205537297288 5:-0.418421537791 9:-0.359026530472 10:-0.460040797874 11:-0.0677051974232 16:-0.233812176646 17:-0.174460728742 19:-0.303571428571 21:-0.214054827571 24:-0.148690884832 39:-0.11322082281 41:-0.114173559631 42:0.0271877808687 49:-0.00976295862113 56:0.0721035623613 57:0.0721035623613 65:0.441347747161 89:-0.229418043697 105:-0.0495233151102 110:-0.280450411145 127:0.21420571862 132:-0.224391581545 140:0.125123038507 144:-0.246735155167 148:-0.246735155167 154:-0.164822182973 155:0.784923979891 162:0.21420571862 170:0.21420571862 183:-0.133651131815 186:0.103034959884 189:-0.200676400848 190:-0.00813579885094 216:0.637903073369 220:-0.0536514242373 233:1.00755179765 318:0.199030816157 320:0.527578486863 321:0.244042609582 324:0.0434655613122 330:0.171540726083 333:-0.167029180621 342:-0.0536514242373 348:0.527578486863 353:-0.128445254585 357:0.103034959884 368:0.21420571862 371:0.27616791847 378:0.562866701252 383:1.06329277258 387:0.311322704169 390:0.392980181364 417:0.79543562972 421:0.598034131283 423:0.0271877808687 437:0.136705446878 454:1.06329277258 459:1.20506514225 502:0.332077551114 506:-0.0937297707669 512:0.349998572741 516:0.735866231148 525:0.178260702325 527:0.638749245599 549:0.416407728128 552:0.243946248724 560:0.598034131283 563:0.332077551114 571:0.468009088291 607:0.952122013842 626:0.395618242924 632:0.86589127414 633:0.637903073369 663:0.86589127414 668:1.06329277258 673:0.952122013842 679:0.79543562972 692:0.735866231148 697:0.0821414298841 707:1.06329277258 716:0.441347747161 724:1.06329277258 725:0.441347747161 726:1.06329277258 773:0.833981728635 786:0.052777726891 787:0.79543562972 812:1.06329277258 832:0.392980181364 838:0.735866231148 872:0.125123038507 877:0.561202830279 891:0.416407728128 895:0.468009088291 896:0.527578486863 914:0.952122013842 942:0.952122013842 945:0.561202830279 960:0.561202830279 984:1.70797081938 985:1.46397498804 986:1.27595132709 987:1.38264304426 988:0.923617359083 989:1.54530693182 990:1.13417895742 991:1.30131110048 992:1.38264304426 993:0.923617359083 994:1.30131110048 995:1.01559681477 996:1.2199791567 997:1.20506514225 998:0.923617359083 999:1.30131110048 1000:1.13417895742 1001:1.03906952897 1003:1.2199791567 1004:1.2199791567 1006:1.2199791567 1007:0.243946248724 1008:1.2199791567 1009:1.2199791567 1011:1.01559681477 1012:1.2199791567 1013:1.2199791567 1015:1.06329277258 1017:0.784923979891 1018:1.2199791567 1019:1.30131110048 1020:1.06329277258 1021:1.06329277258 1022:1.06329277258 1024:1.2199791567 1025:1.2199791567 1027:1.2199791567 1029:1.2199791567 1030:1.2199791567 1031:1.2199791567 1033:1.2199791567 1034:1.2199791567 1035:0.684264870985 1036:1.54530693182 1038:1.2199791567 1039:0.735866231148 1042:1.2199791567 1043:1.2199791567 1044:1.2199791567 1045:1.2199791567 1046:1.2199791567 1049:1.2199791567 1050:1.2199791567 1051:1.2199791567 1052:1.2199791567 1053:1.2199791567 1055:1.2199791567 1058:1.2199791567 1059:1.2199791567 1060:0.79543562972 1061:0.735866231148 1062:1.2199791567 1063:1.2199791567 1066:0.598034131283 1067:1.2199791567 1069:0.86589127414 1075:1.2199791567 1076:1.2199791567 1077:1.06329277258 1078:1.2199791567 1079:1.2199791567 1081:1.2199791567 1082:1.2199791567 1084:0.723915811679 1085:0.952122013842 1087:1.2199791567 1088:0.86589127414 1091:1.2199791567 1093:1.2199791567 1094:1.06329277258 1095:1.06329277258 1096:1.2199791567 1099:1.06329277258 1100:1.2199791567 1101:1.30131110048 1102:0.79543562972 1141:0.86589127414 1296:1.2199791567 1399:0.416407728128 1479:1.48783629956 1480:1.48783629956 1481:1.48783629956 1482:1.48783629956 1483:1.06329277258 1484:1.48783629956 1485:1.2199791567 1486:1.48783629956 1487:1.06329277258 1488:1.48783629956 1489:1.48783629956 1490:1.48783629956 1491:1.48783629956 1492:1.48783629956 1493:1.48783629956 1494:1.48783629956 1495:1.48783629956 1496:1.48783629956 1497:1.48783629956 1498:1.48783629956 1499:1.48783629956 1500:1.48783629956 1501:1.48783629956 1502:1.48783629956 1503:1.48783629956 1504:1.48783629956 1505:1.48783629956 1506:1.48783629956 1507:1.48783629956 1508:1.06329277258 1509:1.48783629956 1510:1.2199791567 1511:1.2199791567 1512:1.48783629956 1513:1.48783629956 1514:1.48783629956 1515:0.86589127414 1516:1.48783629956 
-0.00714076078608031 0.008388961885051206 0:-0.726729828285 2:-0.316694968436 3:-0.31092412546 4:-0.268568735123 5:-0.328042485628 8:0.431431264877 9:-0.376977856996 10:-0.399759589877 11:-0.088468124633 16:-0.267821220522 19:-0.35 21:-0.337136353425 24:-0.220412370456 39:-0.147941875138 41:-0.139862610548 56:0.0942153214854 57:0.0942153214854 60:0.16349410365 62:0.226694389624 64:0.27989547233 89:-0.361333418823 110:-0.274841402922 132:-0.293204999885 144:-0.322400602751 148:-0.322400602751 154:-0.215367652418 162:0.27989547233 225:-0.07010452767 299:0.339369222835 309:0.834367110091 313:0.648952196738 328:1.33633185793 333:-0.244976131577 360:0.17497131133 370:0.431431264877 377:0.107331468382 378:0.648952196738 419:0.151229491914 486:0.781431264877 506:-0.114818969189 525:0.194106098087 545:0.689369222835 549:0.699564983255 562:0.406795000115 595:0.894106098087 651:1.24410609809 659:1.13143126488 725:0.741464215231 782:1.03936922283 785:1.03936922283 786:0.0689628964708 789:1.03936922283 805:0.336255268329 831:0.226694389624 842:0.298952196738 872:0.303631906778 877:0.733305031564 891:0.544106098087 960:0.733305031564 1007:0.318756431666 1022:2.18329449303 1110:1.03936922283 1117:1.63329449303 1138:1.38936922283 1140:1.24410609809 1150:0.360859413467 1155:0.339369222835 1168:0.360859413467 1175:0.360859413467 1184:0.318756431666 1245:1.24410609809 1346:0.431431264877 1359:1.59410609809 1404:1.38936922283 1517:2.50502386842 1518:2.04956498325 1519:1.38936922283 1520:1.03936922283 1521:1.94410609809 1522:1.59410609809 1523:1.94410609809 1524:1.94410609809 1525:0.961531875367 1526:1.94410609809 1527:1.94410609809 
-0.007179727844820606 0.01054093460181491 0:-0.726729828285 2:-0.316694968436 3:-0.31092412546 4:-0.268568735123 5:-0.421768910093 6:-0.0210423473531 9:-0.544523571216 10:-0.31092412546 13:0.107331468382 15:-0.031243568334 17:-0.201142957844 19:-0.45 20:-0.0606660610099 21:-0.337136353425 29:0.383305031564 30:1.13143126488 35:0.16349410365 39:-0.19021098232 41:-0.179823356419 56:0.0942153214854 76:1.38936922283 80:0.484632347582 89:-0.361333418823 98:-0.208305393739 100:0.0689628964708 110:-0.274841402922 114:0.0449134339414 132:-0.293204999885 144:-0.322400602751 148:-0.322400602751 149:-0.0530264206322 151:-0.0210423473531 154:-0.215367652418 157:-0.208305393739 169:-0.215367652418 171:-0.208305393739 183:-0.163722636473 189:-0.262217163775 196:0.261531875367 209:-0.208305393739 214:1.38936922283 225:-0.07010452767 353:-0.139862610548 360:0.0942153214854 371:0.360859413467 375:0.544106098087 419:0.0814312648766 472:1.03936922283 519:0.611531875367 568:0.360859413467 576:0.51349410365 603:0.484632347582 701:1.00469734056 805:0.261531875367 831:0.226694389624 842:0.298952196738 872:0.16349410365 928:0.484632347582 956:0.786255268329 975:1.13143126488 1007:0.318756431666 1066:0.781431264877 1085:1.24410609809 1092:0.733305031564 1114:0.0814312648766 1148:0.484632347582 1150:0.360859413467 1151:0.457331468382 1155:0.339369222835 1168:0.360859413467 1175:0.360859413467 1184:0.318756431666 1235:1.38936922283 1307:1.03936922283 1327:1.38936922283 1518:1.59410609809 1528:1.94410609809 1529:1.59410609809 1530:1.59410609809 1531:1.94410609809 1532:1.38936922283 1533:1.94410609809 1534:1.94410609809 1535:1.94410609809 1536:1.94410609809 1537:1.94410609809 1538:1.94410609809 1539:1.59410609809 1540:1.94410609809 
-0.002365635426400415 0.005339118710348185 0:-0.645982069586 2:-0.301614255653 3:-0.296118214724 4:-0.255779747737 5:-0.702948183489 9:-0.418864285551 10:-0.592236429447 15:-0.0297557793657 17:-0.239455902195 19:-0.416666666667 20:-0.0577772009619 24:-0.16326842256 29:0.456315513767 39:-0.211345535911 41:-0.166503107796 42:0.0317190776801 50:0.656542116985 64:0.333208895631 67:0.269874273362 89:-0.334567980392 98:-0.198386089276 100:0.0656789490199 105:-0.0577772009619 106:-0.0927670541624 110:-0.261753717069 114:0.0427746989918 132:-0.279242857034 140:0.155708670142 144:-0.307048193096 148:-0.307048193096 149:-0.039278830098 151:-0.0200403308125 154:-0.256390062402 157:-0.198386089276 166:0.343675631874 168:0.582411309873 169:-0.256390062402 171:-0.198386089276 183:-0.194907900563 189:-0.249730632166 209:-0.198386089276 217:0.155708670142 220:-0.0667662168286 225:-0.0834577710358 299:0.323208783652 313:0.618049711179 320:0.656542116985 321:0.284716377846 324:0.0540904762996 333:-0.148470382774 342:-0.0834577710358 344:0.549232752023 360:0.134593316408 361:0.0 382:0.141768611578 414:0.656542116985 416:0.461554616745 418:0.744220252263 419:0.0775535855968 423:0.0317190776801 426:0.618049711179 477:0.513608648663 505:0.989875450319 568:0.343675631874 594:0.365052411013 603:0.461554616745 624:0.989875450319 635:0.794887950078 666:1.18486295056 729:1.14468080401 796:0.41088691893 805:0.311347470675 831:0.21589941869 839:0.0427746989918 842:0.284716377846 872:0.155708670142 877:0.698385744347 928:0.461554616745 940:0.989875450319 1007:0.303577553968 1057:1.0775535856 1071:0.544442224264 1140:1.18486295056 1141:1.0775535856 1143:1.18486295056 1145:0.618049711179 1148:0.461554616745 1149:1.18486295056 1150:0.343675631874 1151:0.435553779411 1152:1.32320878365 1153:1.32320878365 1155:0.323208783652 1157:1.0775535856 1165:1.32320878365 1168:0.343675631874 1169:1.32320878365 1170:1.32320878365 1171:1.32320878365 1172:1.32320878365 1173:1.32320878365 1174:1.32320878365 1175:0.343675631874 1177:1.32320878365 1179:0.744220252263 1181:1.32320878365 1184:0.303577553968 1189:1.65401097957 1222:1.0775535856 1227:1.32320878365 1236:0.744220252263 1284:1.89774535487 1285:0.744220252263 1286:1.32320878365 1287:1.32320878365 1288:1.32320878365 1290:0.989875450319 1291:0.549232752023 1292:1.51819628389 1293:1.51819628389 1295:0.794887950078 1299:1.32320878365 1300:1.51819628389 1301:1.51819628389 1303:1.51819628389 1304:1.51819628389 1305:1.51819628389 1376:1.0775535856 1541:1.85152961723 
-0.013060182677123795 0.015050797445078916 0:-0.726729828285 2:-0.33931603761 3:-0.444177322086 5:-0.585790152908 9:-0.418864285551 19:-0.5 21:-0.280946961187 39:-0.211345535911 41:-0.149852797016 98:-0.223184350435 110:-0.294472931703 132:-0.314148214163 144:-0.345429217233 148:-0.345429217233 154:-0.230751056162 157:-0.223184350435 169:-0.307668074882 171:-0.223184350435 183:-0.175417110507 186:0.144248943838 209:-0.223184350435 222:0.894248943838 237:0.738609881609 320:0.984813175478 324:0.0608517858371 330:0.225147202984 353:-0.199803729355 411:0.55017225391 414:0.738609881609 416:0.519248943838 426:0.695305925076 491:1.03021272361 685:1.33297081938 786:0.0738888176473 804:0.894248943838 831:0.242886846026 833:1.33297081938 850:1.03021272361 872:0.17517225391 891:0.582970819379 910:0.78568396239 1057:1.2122477838 1092:0.78568396239 1143:1.77729442584 1184:0.341524748214 1285:0.837247783796 1437:1.11360988161 1476:1.2122477838 1542:2.08297081938 1543:2.08297081938 1544:2.08297081938 1545:1.70797081938 1546:2.08297081938 1547:2.08297081938 1548:2.08297081938 
-0.004239237586336409 0.0046981970608927824 0:-0.565234310888 2:-0.527824947393 5:-0.702948183489 9:-0.349053571292 10:-0.370147768405 15:-0.0371947242071 16:-0.347175656232 19:-0.416666666667 20:-0.0722215012023 21:-0.312163290208 24:-0.2040855282 29:0.456315513767 39:-0.176121279926 41:-0.166503107796 89:-0.468395172549 106:-0.162342344784 110:-0.588945863405 132:-0.628296428326 144:-0.537334337918 148:-0.38381024137 154:-0.256390062402 181:0.377823982707 189:-0.312163290208 225:-0.0834577710358 237:0.820677646232 318:0.290253273563 320:0.820677646232 353:-0.299705594032 362:1.4810786882 410:0.820677646232 441:1.06441202153 525:0.231078688199 552:0.37947194246 595:1.06441202153 804:0.993609937598 805:0.435886458945 831:0.269874273362 842:0.355895472307 872:0.194635837678 959:1.2373443129 1007:0.37947194246 1060:1.2373443129 1103:1.14468080401 1150:0.429594539842 1155:0.404010979565 1168:0.429594539842 1175:0.429594539842 1184:0.37947194246 1191:1.2373443129 1245:1.4810786882 1340:1.4810786882 1360:1.22217505261 1377:1.89774535487 1378:1.89774535487 1380:1.65401097957 1381:1.2373443129 1382:1.89774535487 1383:1.89774535487 1549:2.31441202153 
-0.0018150102593417555 0.003435201294318039 0:-0.403738793491 2:-0.276479734349 3:-0.370147768405 4:-0.277094726715 5:-0.702948183489 7:-0.0490985376224 9:-0.349053571292 10:-0.468853839979 13:0.110738816585 17:-0.207528448569 19:-0.305555555556 20:-0.052962434215 21:-0.228919746153 29:0.334631376762 39:-0.152638442602 41:-0.144302693423 57:0.082251471138 89:-0.28995891634 100:0.0602057032682 105:-0.052962434215 106:-0.0850364663155 110:-0.239940907313 114:0.0392101407425 122:-0.142932460413 126:0.27827942447 132:-0.255972618948 140:0.142732947631 144:-0.281460843672 148:-0.281460843672 149:-0.0360055942565 154:-0.188019379095 166:0.315035995884 183:-0.142932460413 189:-0.228919746153 205:0.503463356021 220:-0.0834577710358 225:-0.0612023654262 230:0.296274718348 299:0.296274718348 313:0.566545568581 318:0.212852400613 324:0.0676130953745 326:0.987757453464 330:0.183453276506 333:-0.136097850876 336:0.475013260235 339:0.78056881579 342:-0.0612023654262 353:-0.12210227905 354:0.448288503186 377:0.0937020755715 400:0.728647287572 416:0.423091732016 419:0.071090786797 423:0.0290758212068 437:0.129954560613 448:0.601830273903 468:0.533877034051 500:0.682201897908 502:0.355138492164 527:0.728647287572 529:0.640186932318 642:1.21294138501 692:0.839432589606 729:0.839432589606 763:1.08612437135 796:0.376646342353 805:0.228321478495 831:0.233891036914 832:0.448288503186 833:1.08612437135 842:0.260990013025 872:0.168684392654 883:0.907385829459 888:0.601830273903 894:0.78056881579 911:0.907385829459 928:0.500017501474 986:1.21294138501 1007:0.27827942447 1011:1.08612437135 1020:1.21294138501 1021:1.21294138501 1066:0.806238606619 1084:0.728647287572 1136:0.839432589606 1146:1.08612437135 1147:0.987757453464 1148:0.423091732016 1150:0.315035995884 1151:0.399257631127 1155:0.296274718348 1168:0.315035995884 1175:0.315035995884 1184:0.27827942447 1241:1.21294138501 1242:0.839432589606 1253:1.21294138501 1278:1.3916799269 1281:1.21294138501 1282:1.08612437135 1307:1.40232355462 1354:0.907385829459 1355:1.3916799269 1360:0.640186932318 1517:1.3916799269 1529:1.3916799269 1530:1.3916799269 1532:1.65401097957 1539:1.3916799269 1550:3.85735336922 1551:2.31441202153 1552:2.00582375199 1553:0.907385829459 1554:1.3916799269 1555:1.69723548246 1556:1.69723548246 1557:1.69723548246 1558:1.69723548246 1559:1.69723548246 1560:1.69723548246 1561:1.69723548246 1562:1.69723548246 1563:1.69723548246 1564:1.21294138501 1565:1.69723548246 1566:1.69723548246 1567:1.69723548246 1568:1.69723548246 1569:1.69723548246 1570:1.69723548246 1571:1.08612437135 1572:1.69723548246 1573:1.3916799269 1574:1.69723548246 1575:1.69723548246 1576:1.69723548246 
-0.01783179080434259 0.024187393608752248 0:-0.726729828285 3:-0.31092412546 5:-0.421768910093 9:-0.376977856996 10:-0.31092412546 11:-0.088468124633 17:-0.201142957844 19:-0.35 20:-0.0606660610099 21:-0.262217163775 35:0.16349410365 98:-0.208305393739 110:-0.353367518043 149:-0.0412427716029 154:-0.215367652418 157:-0.208305393739 169:-0.215367652418 171:-0.208305393739 183:-0.163722636473 209:-0.208305393739 218:0.134632347582 318:0.243812749793 324:0.0892492858944 330:0.210137389452 377:0.107331468382 378:0.648952196738 506:-0.114818969189 562:0.406795000115 594:0.383305031564 711:0.689369222835 805:0.261531875367 872:0.16349410365 968:0.384367110091 969:1.38936922283 1047:0.834632347582 1080:1.03936922283 1092:0.733305031564 1105:0.733305031564 1107:0.648952196738 1111:1.45469734056 1116:0.961531875367 1117:1.03936922283 1122:1.13143126488 1127:0.961531875367 1129:1.24410609809 1132:1.13143126488 1135:1.13143126488 1213:1.38936922283 1244:0.894106098087 1265:1.24410609809 1577:1.94410609809 1578:1.24410609809 
-0.0287586121683423 0.00943833621421534 0:-0.682685596267 2:-0.26733990842 3:-0.666265983128 5:-0.362124821797 6:-0.0204957928764 8:0.364195223597 9:-0.285589285603 10:-0.383607687256 13:0.13242194151 15:-0.0263744408014 16:-0.202894864032 17:-0.169796003374 18:0.373349056718 19:-0.340909090909 20:-0.0512116099435 21:-0.289460505466 24:-0.189242944331 26:0.323569182489 29:0.323569182489 39:-0.14409922903 41:-0.136229815469 49:-0.00897403267195 52:0.877389603692 57:0.091768170278 59:0.459310342541 63:0.364195223597 80:0.409105228479 89:-0.310235763636 98:-0.175842215494 100:0.0582154320858 105:-0.0512116099435 106:-0.0948753963024 110:-0.303396353875 114:0.0379139377428 126:0.269080104653 132:-0.247510714189 135:0.409105228479 136:0.286480512783 139:0.286480512783 140:0.159247503555 141:0.409105228479 144:-0.272156352972 148:-0.272156352972 149:-0.040171530782 152:0.304621582797 154:-0.20977368742 156:0.459310342541 157:-0.175842215494 161:0.459310342541 162:0.23627539872 169:-0.18180386243 170:0.23627539872 171:-0.175842215494 183:-0.159470100461 189:-0.221352151238 190:-0.010354653083 191:0.364195223597 196:0.220773661024 205:0.486819939293 209:-0.175842215494 220:-0.0682836308474 225:-0.0591791467345 240:0.955104314506 292:1.05021943345 318:0.205815957617 324:0.0479438312656 330:0.20467927544 333:-0.151844709655 351:0.955104314506 353:-0.154393790865 357:0.113650683024 385:0.811682751933 391:0.581935058237 400:0.704559773933 408:1.05021943345 423:0.0281146370346 425:1.01237261964 437:0.12565854208 448:0.581935058237 456:0.877389603692 468:0.516228206479 469:1.17284414915 472:0.877389603692 489:0.459310342541 498:0.877389603692 500:0.659649769052 506:-0.0969251038612 525:0.163855797087 552:0.269080104653 563:0.34339837672 589:0.955104314506 654:2.38080780883 655:1.21179165398 659:0.955104314506 660:1.3456739789 661:1.3456739789 663:0.955104314506 664:1.17284414915 665:1.3456739789 667:1.3456739789 669:1.3456739789 670:1.3456739789 671:1.3456739789 672:1.3456739789 673:1.05021943345 674:1.3456739789 675:1.3456739789 676:0.955104314506 677:1.05021943345 678:1.3456739789 679:0.877389603692 732:1.17284414915 781:1.17284414915 805:0.254738839643 831:0.191365393839 842:0.252362243999 872:0.138014503081 904:0.704559773933 1007:0.269080104653 1071:0.386059031751 1136:0.811682751933 1148:0.409105228479 1150:0.304621582797 1151:0.386059031751 1155:0.286480512783 1168:0.304621582797 1175:0.304621582797 1184:0.269080104653 1307:1.28233865155 1554:1.3456739789 1579:1.64112852436 1580:1.64112852436 1581:1.64112852436 1582:1.64112852436 1583:1.64112852436 1584:1.64112852436 1585:1.64112852436 1586:1.64112852436 
